1042 100
</s> -0.366 -0.084517 -0.25363 -0.062789 -0.011179 -0.24698 0.30344 0.1919 -0.28463 0.47012 -0.1334 -0.42089 0.042927 0.080862 0.15545 0.17728 0.14075 0.098325 -0.2182 -0.2442 -0.0036004 0.32773 -0.015015 0.075362 0.22925 0.18272 -0.10572 0.013339 0.19975 -0.11466 -0.25927 0.065 0.018431 0.23122 -0.00031358 0.36458 0.13083 -0.21957 -0.55785 0.34269 0.25767 -0.44014 -0.11013 0.054137 -0.012715 -0.55916 -0.015117 -0.031157 0.035084 0.46045 0.33776 -0.013626 -0.27438 -0.02519 0.095372 0.27399 0.0062101 0.14037 0.11214 -0.11622 -0.089558 0.259 0.20456 0.34357 -0.063936 -0.26029 0.027734 0.21992 -0.36702 -0.069263 -0.079176 0.45943 0.12085 -0.084544 -0.2854 -0.31387 0.10304 0.49389 0.17154 -0.16307 -0.20228 -0.14343 0.26894 -0.228 0.084722 0.28791 -0.21506 0.10799 -0.27541 0.071491 0.070043 -0.19307 0.13119 0.086384 0.32326 0.11442 -0.13078 0.38795 -0.52233 -0.0056205 
Dog -0.31132 -0.09175 -0.20112 -0.05779 -0.014212 -0.22316 0.24594 0.16219 -0.2519 0.38098 -0.10273 -0.35274 0.0085627 0.049841 0.13942 0.15633 0.10442 0.067269 -0.18273 -0.20207 0.0025969 0.27192 -0.01592 0.070979 0.19981 0.17447 -0.089085 0.021807 0.16209 -0.094518 -0.21925 0.042355 0.028715 0.20647 0.014871 0.32526 0.10428 -0.1695 -0.49627 0.28856 0.21191 -0.38118 -0.085927 0.052156 0.013282 -0.48419 -0.0030171 -0.041499 0.046537 0.4032 0.27977 -0.02615 -0.20534 -0.0060079 0.085156 0.23931 -0.0015235 0.10857 0.078451 -0.10272 -0.071089 0.2208 0.17609 0.29209 -0.047458 -0.20126 0.028403 0.18656 -0.33292 -0.07299 -0.045774 0.39959 0.12097 -0.061616 -0.25871 -0.25756 0.089781 0.41198 0.15702 -0.1336 -0.17649 -0.13912 0.21234 -0.18006 0.058217 0.26363 -0.17213 0.08534 -0.23138 0.0555 0.041802 -0.16903 0.11183 0.096646 0.27606 0.090306 -0.12709 0.32367 -0.44028 -0.014122 
Dry -0.3122 -0.068925 -0.21636 -0.051466 -0.014868 -0.23685 0.24055 0.16424 -0.25395 0.41913 -0.11073 -0.37097 0.024508 0.065117 0.14773 0.14701 0.1235 0.089044 -0.18968 -0.19901 0.0017761 0.30015 -0.022745 0.090227 0.1967 0.16448 -0.088984 0.014138 0.16814 -0.10271 -0.23132 0.06637 0.0024466 0.19937 8.0091e-05 0.32403 0.095905 -0.20033 -0.46 0.31415 0.22675 -0.40957 -0.10839 0.057776 -0.012719 -0.48965 0.0031353 -0.019531 0.045795 0.4263 0.29947 -0.016805 -0.22807 -0.033538 0.098285 0.25519 0.014583 0.10436 0.086599 -0.11131 -0.05813 0.22607 0.1743 0.30807 -0.068271 -0.21009 0.056834 0.18963 -0.32747 -0.054745 -0.050796 0.41127 0.11973 -0.076898 -0.25503 -0.27021 0.1052 0.44998 0.16351 -0.13805 -0.15698 -0.13679 0.23726 -0.19352 0.069175 0.26014 -0.18487 0.086492 -0.23365 0.063611 0.065224 -0.16974 0.12096 0.095627 0.27134 0.11538 -0.1454 0.34646 -0.45183 -0.00267 
Food. -0.34375 -0.096271 -0.23723 -0.056651 -0.019129 -0.25068 0.30054 0.1987 -0.28696 0.43639 -0.13357 -0.41475 0.026288 0.069815 0.1542 0.18594 0.13496 0.087813 -0.2141 -0.22937 -0.0067436 0.31856 -0.034271 0.074415 0.2116 0.19644 -0.10653 0.0092211 0.19856 -0.12856 -0.23908 0.07241 0.026967 0.23401 0.0055434 0.35625 0.12714 -0.20529 -0.54127 0.34405 0.24089 -0.42086 -0.099032 0.059834 -0.0092311 -0.54117 -0.0132 -0.030428 0.036235 0.45841 0.31864 -0.022376 -0.25352 -0.033806 0.098225 0.27093 -0.0040419 0.14286 0.10214 -0.12762 -0.08276 0.24897 0.19294 0.33004 -0.056949 -0.23741 0.045901 0.20386 -0.35618 -0.070445 -0.066219 0.45041 0.13579 -0.085882 -0.27602 -0.29833 0.089335 0.48073 0.1702 -0.15343 -0.17698 -0.14519 0.24073 -0.20664 0.090977 0.27751 -0.20675 0.12111 -0.26595 0.078219 0.066596 -0.19771 0.11784 0.10636 0.31533 0.11143 -0.1328 0.37438 -0.50363 -0.0092621 
Blue -0.34274 -0.091353 -0.23632 -0.054131 -0.0091279 -0.25214 0.28868 0.18592 -0.28221 0.44466 -0.12625 -0.40587 0.027309 0.066746 0.16012 0.17971 0.13163 0.091237 -0.20644 -0.2264 -0.012235 0.31309 -0.028007 0.082439 0.20907 0.18807 -0.098448 0.012392 0.19219 -0.12209 -0.23776 0.073993 0.025027 0.22205 0.0059923 0.35218 0.11709 -0.22036 -0.50799 0.33938 0.23513 -0.4277 -0.11327 0.057852 -0.013911 -0.53422 -0.01014 -0.019693 0.04497 0.44796 0.32442 -0.017724 -0.25496 -0.043976 0.10107 0.27382 0.0050719 0.13415 0.10665 -0.12184 -0.07697 0.24384 0.19203 0.33203 -0.053262 -0.24499 0.050417 0.20217 -0.35559 -0.069477 -0.065539 0.45232 0.1269 -0.086457 -0.27257 -0.29748 0.089395 0.4839 0.16192 -0.14481 -0.17434 -0.14837 0.24828 -0.20281 0.086208 0.27504 -0.20323 0.11467 -0.26355 0.082574 0.071736 -0.19788 0.11806 0.10024 0.3085 0.12432 -0.13595 0.36786 -0.50304 -0.0038764 
Canin -0.32612 -0.08325 -0.21362 -0.058707 -0.01761 -0.23345 0.27252 0.18473 -0.26385 0.40873 -0.12855 -0.38851 0.023495 0.059373 0.14246 0.1693 0.12922 0.082099 -0.20283 -0.22144 -0.011728 0.29325 -0.026359 0.073465 0.19511 0.17141 -0.10243 0.00946 0.17908 -0.12065 -0.2245 0.069257 0.02276 0.21828 -0.0016546 0.32992 0.11874 -0.19334 -0.504 0.32848 0.21467 -0.37542 -0.10135 0.046426 -0.0067343 -0.51298 -0.015331 -0.031446 0.041254 0.42321 0.30179 -0.020208 -0.24584 -0.039114 0.092061 0.25422 -0.0028612 0.12632 0.095033 -0.11684 -0.080571 0.23689 0.18117 0.30659 -0.048401 -0.23171 0.037014 0.19368 -0.33393 -0.062508 -0.064925 0.41428 0.12356 -0.075147 -0.25766 -0.2773 0.077601 0.44897 0.15027 -0.14747 -0.17057 -0.13567 0.22746 -0.1927 0.082026 0.26151 -0.18975 0.11903 -0.24868 0.07595 0.060321 -0.1854 0.1133 0.10284 0.29436 0.1022 -0.12347 0.3533 -0.47366 -0.0055434 
Royal -0.30555 -0.080822 -0.20268 -0.057873 -0.020339 -0.21414 0.25521 0.17332 -0.24718 0.38642 -0.11825 -0.36275 0.029345 0.058815 0.14016 0.15351 0.12262 0.07718 -0.1915 -0.20728 -0.00099784 0.27471 -0.020124 0.077925 0.18858 0.15975 -0.095321 0.015726 0.17293 -0.10764 -0.21769 0.056657 0.024387 0.20844 0.0053694 0.31177 0.10976 -0.17578 -0.47385 0.30082 0.20234 -0.36637 -0.094064 0.044822 -0.0072888 -0.48691 -0.006427 -0.027507 0.034624 0.39743 0.29157 -0.023395 -0.23003 -0.026138 0.082132 0.23989 0.00067452 0.12118 0.094474 -0.1098 -0.078047 0.22342 0.17249 0.28807 -0.05608 -0.22119 0.029363 0.18524 -0.31988 -0.067124 -0.068028 0.38495 0.1078 -0.070726 -0.24824 -0.26708 0.073699 0.41517 0.14527 -0.14076 -0.16258 -0.1247 0.21629 -0.18427 0.07504 0.24978 -0.18501 0.10599 -0.23067 0.069671 0.056431 -0.16728 0.10652 0.091301 0.27954 0.10757 -0.11826 0.32938 -0.44674 -0.015219 
Buffalo -0.33374 -0.092076 -0.21969 -0.059303 -0.019586 -0.23724 0.27178 0.18612 -0.27338 0.40734 -0.12493 -0.39307 0.015854 0.061904 0.14507 0.17218 0.12933 0.080376 -0.2041 -0.22091 -0.0087704 0.30077 -0.03053 0.067104 0.2017 0.18273 -0.10225 0.0086631 0.18373 -0.11457 -0.23312 0.064872 0.029657 0.22176 0.0020928 0.33605 0.1227 -0.19173 -0.51693 0.32391 0.22481 -0.39825 -0.09547 0.058354 0.0010742 -0.51505 -0.012778 -0.032373 0.046058 0.43269 0.30739 -0.019596 -0.241 -0.026696 0.089393 0.25324 -0.0043138 0.13295 0.092549 -0.11606 -0.077154 0.23916 0.19024 0.31172 -0.049113 -0.22685 0.049432 0.19394 -0.34141 -0.063289 -0.062245 0.43068 0.12884 -0.073046 -0.26446 -0.28135 0.087737 0.45404 0.16385 -0.15155 -0.17361 -0.14248 0.22958 -0.19147 0.078745 0.273 -0.18867 0.11547 -0.25004 0.071155 0.056341 -0.18562 0.11472 0.10584 0.29521 0.10168 -0.13019 0.3562 -0.47982 -0.00202 
Adult -0.32604 -0.096391 -0.21845 -0.059337 -0.024944 -0.23048 0.28216 0.19276 -0.27291 0.40502 -0.13152 -0.401 0.021299 0.069242 0.14682 0.18109 0.13155 0.076548 -0.20184 -0.22746 -0.0074098 0.2964 -0.024463 0.068222 0.19803 0.18061 -0.10633 0.0094674 0.18588 -0.12314 -0.22635 0.060217 0.035023 0.2225 0.004749 0.33541 0.12152 -0.18803 -0.51867 0.33455 0.22011 -0.38899 -0.090869 0.052604 -0.0032222 -0.51379 -0.016987 -0.028032 0.037055 0.42016 0.3076 -0.02333 -0.24498 -0.035191 0.086174 0.25225 -0.010481 0.13399 0.093886 -0.12291 -0.075939 0.23758 0.18023 0.30553 -0.04868 -0.23237 0.039729 0.19502 -0.33553 -0.069362 -0.063323 0.41707 0.13027 -0.06754 -0.25998 -0.27914 0.074342 0.44748 0.15493 -0.14239 -0.16586 -0.13746 0.2253 -0.18888 0.088325 0.26524 -0.19188 0.11875 -0.24711 0.07485 0.056119 -0.18439 0.10968 0.1037 0.30138 0.099938 -0.12422 0.34791 -0.47001 -0.0049614 
Food -0.32689 -0.09467 -0.21735 -0.060312 -0.016822 -0.23473 0.28591 0.19388 -0.27142 0.40389 -0.12358 -0.392 0.02096 0.057005 0.13861 0.1777 0.12539 0.0794 -0.20168 -0.22326 -0.0072401 0.29554 -0.029825 0.068668 0.1999 0.18958 -0.10302 0.0068933 0.19146 -0.12049 -0.22809 0.070118 0.032723 0.22817 -0.0012807 0.33751 0.12496 -0.18559 -0.51984 0.32312 0.21774 -0.38321 -0.093692 0.062143 -0.0022398 -0.51448 -0.01942 -0.035648 0.040601 0.43397 0.29754 -0.021877 -0.24646 -0.027015 0.091773 0.25595 -0.010899 0.13747 0.094443 -0.12005 -0.083976 0.23862 0.19045 0.3109 -0.047696 -0.22102 0.03586 0.19157 -0.33393 -0.06454 -0.071328 0.42215 0.13342 -0.07639 -0.26212 -0.27848 0.080865 0.44721 0.16311 -0.14595 -0.17168 -0.14033 0.22045 -0.19913 0.08788 0.25722 -0.18967 0.12642 -0.25025 0.07743 0.056792 -0.18477 0.11289 0.10564 0.30141 0.098249 -0.12189 0.36275 -0.48077 -0.016896 
Breed -0.3545 -0.091567 -0.25752 -0.060041 -0.019757 -0.26193 0.29992 0.19731 -0.3011 0.46765 -0.1389 -0.44522 0.020136 0.07637 0.16001 0.18972 0.13898 0.095191 -0.22035 -0.23766 -0.0010468 0.32962 -0.030429 0.084484 0.22149 0.20631 -0.11005 0.0023115 0.20677 -0.1289 -0.25791 0.063669 0.029272 0.23976 0.0032533 0.36784 0.12673 -0.21546 -0.56823 0.36439 0.26329 -0.47132 -0.11411 0.057008 -0.0022629 -0.56948 -0.018442 -0.017066 0.031261 0.47625 0.35276 -0.025631 -0.2641 -0.037342 0.090581 0.28633 0.0050434 0.14745 0.11089 -0.12522 -0.083358 0.26185 0.18932 0.34686 -0.066727 -0.26481 0.045361 0.22277 -0.37952 -0.072729 -0.063203 0.4896 0.14362 -0.094932 -0.28311 -0.32001 0.10414 0.50495 0.17855 -0.16276 -0.1898 -0.15264 0.25826 -0.22132 0.099705 0.30626 -0.224 0.10827 -0.28214 0.081274 0.057701 -0.20666 0.11568 0.097242 0.32735 0.13176 -0.14041 0.38757 -0.52929 0.006494 
and -0.32693 -0.080562 -0.22073 -0.060717 -0.01775 -0.21955 0.25851 0.16615 -0.27359 0.41152 -0.12156 -0.38172 0.026282 0.063915 0.15117 0.15938 0.13288 0.081324 -0.19801 -0.20598 0.0080563 0.28258 -0.014883 0.078772 0.20328 0.17287 -0.099955 0.019424 0.17196 -0.11069 -0.22269 0.065837 0.024119 0.21187 0.011952 0.33715 0.12056 -0.17919 -0.52308 0.31713 0.22287 -0.40754 -0.10238 0.0518 0.0051462 -0.51456 -0.0055111 -0.030099 0.048952 0.4158 0.3175 -0.024593 -0.23333 -0.018237 0.079498 0.25493 0.00095093 0.12616 0.090591 -0.10691 -0.073827 0.2241 0.1836 0.30172 -0.057764 -0.23799 0.023272 0.20068 -0.35186 -0.074581 -0.05406 0.41021 0.11773 -0.078724 -0.26606 -0.28708 0.083674 0.43247 0.15718 -0.15592 -0.1757 -0.13285 0.22224 -0.19584 0.084437 0.28286 -0.19848 0.09175 -0.25424 0.053049 0.050659 -0.17472 0.11034 0.087638 0.29135 0.11349 -0.12821 0.34719 -0.47291 -0.0088137 
Chicken -0.33676 -0.098853 -0.22042 -0.056373 -0.016612 -0.23326 0.27746 0.19367 -0.27594 0.40569 -0.12431 -0.39566 0.012471 0.062168 0.14193 0.18614 0.12653 0.082339 -0.20148 -0.22985 -0.010333 0.30727 -0.030145 0.069783 0.20742 0.18569 -0.10211 0.0080107 0.18818 -0.11782 -0.22823 0.067174 0.032937 0.22704 -0.0031031 0.34025 0.1232 -0.20197 -0.52268 0.3286 0.22064 -0.40263 -0.0977 0.060376 0.0029541 -0.52219 -0.012543 -0.034466 0.052494 0.4295 0.31032 -0.020841 -0.24248 -0.033423 0.091473 0.25244 -0.0021341 0.14096 0.090251 -0.11797 -0.079066 0.24692 0.19262 0.31177 -0.048332 -0.22737 0.048782 0.19227 -0.34707 -0.062215 -0.061901 0.43133 0.13251 -0.071757 -0.26937 -0.28713 0.083357 0.45231 0.1661 -0.15228 -0.17453 -0.14795 0.23157 -0.19522 0.086366 0.27464 -0.18793 0.1226 -0.25535 0.077341 0.057296 -0.19221 0.11245 0.1054 0.29994 0.10451 -0.12627 0.3563 -0.49058 -0.0033813 
Recipe -0.34341 -0.087751 -0.2356 -0.053623 -0.011213 -0.24882 0.2728 0.17791 -0.27814 0.43615 -0.11785 -0.39759 0.019665 0.063389 0.15237 0.17172 0.13097 0.089345 -0.20399 -0.22115 -0.0057985 0.31675 -0.032442 0.079517 0.21629 0.18485 -0.099163 0.012601 0.18551 -0.11578 -0.24046 0.068083 0.025078 0.22607 0.0047757 0.34716 0.11438 -0.21301 -0.52116 0.33276 0.24349 -0.43366 -0.11188 0.056534 -0.0047883 -0.53198 -0.0083222 -0.030235 0.048261 0.44696 0.32423 -0.017476 -0.24365 -0.033272 0.095105 0.26704 0.0078945 0.12917 0.090632 -0.10947 -0.082283 0.24759 0.18904 0.32681 -0.054601 -0.23756 0.048439 0.19846 -0.35959 -0.060813 -0.059861 0.44913 0.12662 -0.085877 -0.26992 -0.29799 0.094826 0.47516 0.17127 -0.1516 -0.18359 -0.14476 0.24876 -0.20589 0.07479 0.28464 -0.20036 0.10388 -0.25522 0.077085 0.059742 -0.19239 0.11544 0.10112 0.30181 0.11848 -0.1377 0.3643 -0.49787 -0.0019941 
Small -0.37497 -0.10306 -0.24412 -0.065687 -0.019684 -0.25929 0.31762 0.21443 -0.3058 0.44509 -0.15324 -0.44562 0.027146 0.076168 0.15838 0.202 0.13887 0.08874 -0.22482 -0.24775 -0.011704 0.32868 -0.029922 0.075421 0.22271 0.20687 -0.11114 0.0012469 0.21845 -0.1421 -0.24939 0.073296 0.032795 0.25175 0.00072566 0.37164 0.14893 -0.21668 -0.57829 0.37053 0.24666 -0.42668 -0.10993 0.061301 -0.0031876 -0.57787 -0.015001 -0.038007 0.044646 0.48064 0.33608 -0.025981 -0.27929 -0.041319 0.095561 0.27909 -0.0080074 0.15897 0.10455 -0.13503 -0.094672 0.27033 0.20407 0.34778 -0.050355 -0.26321 0.038936 0.21055 -0.37203 -0.07688 -0.07561 0.46948 0.14369 -0.077676 -0.29505 -0.31614 0.083014 0.49722 0.18105 -0.15803 -0.18654 -0.15153 0.24848 -0.21959 0.10008 0.28156 -0.21038 0.13613 -0.28478 0.089671 0.061854 -0.21336 0.12815 0.1202 0.33691 0.10683 -0.13625 0.40259 -0.53849 -0.012746 
Hills -0.33716 -0.093681 -0.23316 -0.057661 -0.010102 -0.23297 0.28799 0.18217 -0.27968 0.41767 -0.12339 -0.40649 0.018822 0.060752 0.14069 0.17868 0.13449 0.086815 -0.20114 -0.22638 -0.0098916 0.3036 -0.027668 0.063892 0.2073 0.19187 -0.107 0.0088787 0.19344 -0.12047 -0.22549 0.074109 0.035485 0.22478 -0.001169 0.34245 0.12539 -0.1969 -0.53587 0.33605 0.2267 -0.41891 -0.10194 0.055751 0.001503 -0.52566 -0.02416 -0.028549 0.038572 0.43071 0.32485 -0.014727 -0.24462 -0.034346 0.084315 0.25863 -0.0085902 0.14099 0.089257 -0.11337 -0.083129 0.2337 0.18787 0.3096 -0.043125 -0.24074 0.033166 0.19308 -0.34687 -0.057225 -0.066579 0.43785 0.12383 -0.082116 -0.26256 -0.29411 0.083769 0.45958 0.17049 -0.15419 -0.17878 -0.1408 0.23851 -0.20403 0.091825 0.27203 -0.19535 0.11682 -0.2563 0.071784 0.058374 -0.19351 0.10536 0.096274 0.30437 0.1085 -0.11792 0.36292 -0.49282 0.0050022 
Natural -0.33001 -0.085404 -0.22161 -0.060107 -0.018007 -0.23085 0.26171 0.16915 -0.27359 0.42301 -0.11927 -0.3793 0.02664 0.070424 0.1588 0.15873 0.1264 0.075507 -0.20176 -0.21369 0.0073278 0.29178 -0.016876 0.081709 0.2119 0.16674 -0.098857 0.020427 0.17736 -0.10839 -0.23828 0.05201 0.026688 0.21695 0.012037 0.33659 0.1168 -0.18832 -0.51413 0.32369 0.22779 -0.41486 -0.10453 0.043643 0.0040792 -0.52059 -0.00061353 -0.033269 0.050083 0.4272 0.3223 -0.029578 -0.22742 -0.015276 0.087562 0.26396 0.0097343 0.11418 0.092586 -0.10587 -0.078815 0.23075 0.18037 0.31207 -0.058721 -0.23976 0.036807 0.1991 -0.35703 -0.079971 -0.054017 0.42125 0.11617 -0.076148 -0.272 -0.28724 0.086471 0.43626 0.16473 -0.14497 -0.18165 -0.13686 0.23882 -0.19982 0.071266 0.28709 -0.19931 0.08663 -0.24534 0.061523 0.048912 -0.17936 0.11125 0.090316 0.29047 0.11317 -0.13813 0.33965 -0.46916 -0.0071942 
Balance -0.34134 -0.089578 -0.21914 -0.062329 -0.014157 -0.23009 0.26237 0.17636 -0.27471 0.40742 -0.12351 -0.37951 0.024098 0.061535 0.14871 0.16339 0.12807 0.078447 -0.1958 -0.21533 -0.0029105 0.29895 -0.028933 0.074167 0.20589 0.17561 -0.093053 0.0087129 0.18292 -0.11069 -0.23436 0.059477 0.026113 0.22123 0.0052302 0.33393 0.12164 -0.19342 -0.50817 0.31934 0.22116 -0.40927 -0.10895 0.054741 -0.00080274 -0.51984 -0.0039952 -0.031736 0.049181 0.42889 0.31497 -0.027284 -0.23538 -0.022877 0.089664 0.25599 0.001223 0.13377 0.089994 -0.10592 -0.081956 0.23845 0.18953 0.31741 -0.054664 -0.23479 0.04665 0.18899 -0.34764 -0.071323 -0.059916 0.42353 0.11685 -0.079241 -0.26733 -0.29228 0.086365 0.45015 0.16739 -0.14394 -0.17773 -0.138 0.23304 -0.19722 0.074646 0.27453 -0.19252 0.10539 -0.24665 0.068478 0.053445 -0.1874 0.1133 0.10514 0.29808 0.10922 -0.13118 0.34925 -0.48315 -0.012365 
Grain -0.39774 -0.10149 -0.27774 -0.072446 -0.020313 -0.28358 0.31773 0.21122 -0.32998 0.51498 -0.14595 -0.45991 0.036185 0.089307 0.19031 0.19752 0.15807 0.10093 -0.24615 -0.25793 0.0052766 0.35789 -0.028998 0.10017 0.24998 0.19997 -0.12081 0.011092 0.21649 -0.1347 -0.29303 0.070564 0.032209 0.26573 0.0066655 0.4049 0.13395 -0.23843 -0.61187 0.39829 0.27744 -0.50707 -0.13326 0.045762 -0.0040595 -0.63045 -0.010314 -0.031813 0.049512 0.52048 0.38877 -0.028545 -0.2859 -0.029424 0.10762 0.31597 0.0069773 0.15252 0.12193 -0.12302 -0.09916 0.2847 0.20788 0.37844 -0.072005 -0.29836 0.054339 0.23634 -0.42527 -0.092107 -0.06878 0.5184 0.14162 -0.10405 -0.31387 -0.34925 0.099367 0.53892 0.19305 -0.17542 -0.21243 -0.16905 0.29869 -0.23669 0.090341 0.34509 -0.24598 0.11886 -0.297 0.075402 0.073024 -0.22844 0.12876 0.10872 0.35577 0.14144 -0.16381 0.41471 -0.58001 -0.0016235 
Puppy -0.35059 -0.10171 -0.24109 -0.058893 -0.013183 -0.25326 0.30798 0.20402 -0.28956 0.45294 -0.13616 -0.42561 0.028816 0.065882 0.15863 0.19503 0.13931 0.089074 -0.21758 -0.24332 -0.011102 0.31929 -0.022052 0.075826 0.22078 0.19904 -0.10913 0.014867 0.20398 -0.12844 -0.24832 0.071435 0.03199 0.24617 0.0041272 0.36729 0.12823 -0.21604 -0.55558 0.3543 0.23965 -0.42917 -0.11423 0.053613 -0.006565 -0.56817 -0.019372 -0.032405 0.040657 0.46495 0.33696 -0.021751 -0.26269 -0.040889 0.097424 0.28081 -0.0012504 0.1412 0.10744 -0.12493 -0.08963 0.25694 0.19492 0.33595 -0.050513 -0.25679 0.039878 0.20807 -0.36859 -0.074042 -0.071517 0.46291 0.13422 -0.08379 -0.28198 -0.308 0.08455 0.48169 0.16997 -0.15622 -0.1873 -0.15002 0.24678 -0.2168 0.090013 0.2895 -0.21251 0.12927 -0.27088 0.083462 0.065388 -0.20821 0.11964 0.10848 0.32027 0.11417 -0.13625 0.37895 -0.51754 -0.0099402 
Free -0.33304 -0.094676 -0.21667 -0.058514 -0.023988 -0.22936 0.27164 0.17387 -0.26648 0.4013 -0.12072 -0.38003 0.012425 0.05633 0.15144 0.16797 0.12684 0.076467 -0.1917 -0.21814 0.0021256 0.3066 -0.031006 0.06869 0.20599 0.18774 -0.089008 0.014332 0.17975 -0.11169 -0.23016 0.053656 0.033004 0.22844 0.012907 0.33493 0.11436 -0.19411 -0.51309 0.31435 0.22191 -0.41221 -0.092016 0.051338 -0.0024043 -0.5169 -0.01194 -0.031633 0.044445 0.42857 0.30524 -0.027992 -0.23367 -0.019275 0.086624 0.25109 0.0058129 0.13129 0.085373 -0.10404 -0.078701 0.24025 0.194 0.3136 -0.048548 -0.22361 0.043789 0.18473 -0.34473 -0.068115 -0.064603 0.42438 0.12578 -0.068205 -0.2642 -0.28336 0.089754 0.4408 0.16476 -0.14603 -0.17666 -0.13355 0.23381 -0.197 0.074886 0.26897 -0.19061 0.10647 -0.24195 0.072045 0.050591 -0.18035 0.1127 0.10421 0.29653 0.10757 -0.12752 0.34325 -0.47924 -0.016256 
Science -0.34762 -0.097898 -0.23123 -0.067037 -0.018653 -0.23846 0.28288 0.19612 -0.28452 0.42188 -0.13177 -0.40615 0.016259 0.072844 0.15567 0.1815 0.12966 0.073649 -0.20524 -0.23747 0.00011308 0.30357 -0.02199 0.07391 0.21531 0.19103 -0.10256 0.0098949 0.19462 -0.11615 -0.23587 0.05708 0.033706 0.23854 0.011143 0.35761 0.12458 -0.20407 -0.545 0.33927 0.22745 -0.41825 -0.10276 0.052841 0.002601 -0.54968 -0.014575 -0.035422 0.046218 0.43684 0.32615 -0.025098 -0.24798 -0.031723 0.085954 0.26463 0.00085801 0.13544 0.097602 -0.1177 -0.086939 0.25305 0.18753 0.32056 -0.048621 -0.24648 0.034792 0.19808 -0.36001 -0.073168 -0.065554 0.44657 0.12762 -0.073089 -0.27255 -0.30711 0.080954 0.46108 0.16942 -0.15118 -0.18214 -0.14637 0.24441 -0.19854 0.080532 0.28224 -0.19881 0.11105 -0.26013 0.072769 0.0549 -0.20233 0.11374 0.10529 0.32052 0.1077 -0.13259 0.36036 -0.50022 -0.0091219 
Wilderness -0.36532 -0.093323 -0.24637 -0.066039 -0.012777 -0.25801 0.29079 0.19179 -0.30077 0.46578 -0.13344 -0.41884 0.028487 0.072371 0.16856 0.18125 0.1398 0.089006 -0.22071 -0.23957 -0.0037891 0.32426 -0.027078 0.084448 0.22859 0.19172 -0.10496 0.01455 0.19806 -0.12094 -0.2594 0.065845 0.029904 0.24163 0.0081451 0.37164 0.12781 -0.21584 -0.55835 0.35411 0.24868 -0.45764 -0.12057 0.054234 -0.0015877 -0.5751 -0.0073547 -0.032162 0.050461 0.47033 0.35157 -0.028183 -0.25732 -0.028972 0.10197 0.28662 0.005918 0.13793 0.1107 -0.11582 -0.085408 0.25715 0.20113 0.34458 -0.062498 -0.26317 0.050517 0.21794 -0.38346 -0.07987 -0.062536 0.46968 0.12681 -0.089903 -0.29141 -0.31504 0.095991 0.49274 0.17831 -0.16001 -0.19369 -0.15651 0.26425 -0.21934 0.081732 0.31091 -0.2186 0.11071 -0.27103 0.074057 0.060596 -0.20595 0.123 0.10364 0.32455 0.1272 -0.14715 0.37771 -0.52884 -0.011709 
& -0.32433 -0.075602 -0.22636 -0.054444 -0.002216 -0.20263 0.24703 0.16149 -0.27151 0.4058 -0.10929 -0.37367 0.03101 0.069237 0.14587 0.14869 0.12345 0.074057 -0.1948 -0.21626 0.0050475 0.27224 -0.015813 0.08374 0.21128 0.16729 -0.1034 0.013087 0.18578 -0.11123 -0.22783 0.050531 0.033679 0.22304 0.018047 0.32071 0.11659 -0.17966 -0.50827 0.30396 0.22478 -0.4248 -0.12258 0.037284 0.0098986 -0.51234 -0.0089108 -0.020114 0.049558 0.39585 0.32493 -0.026516 -0.224 -0.020398 0.074401 0.25619 0.00093323 0.11929 0.09964 -0.089655 -0.080478 0.2202 0.16851 0.299 -0.048822 -0.25164 0.019678 0.19588 -0.35407 -0.081719 -0.054093 0.41827 0.094972 -0.075796 -0.25668 -0.27872 0.073046 0.40337 0.16561 -0.14424 -0.18021 -0.14575 0.23974 -0.20314 0.074951 0.2935 -0.19908 0.085316 -0.24352 0.057791 0.039404 -0.18685 0.10441 0.076155 0.29447 0.12111 -0.12523 0.31822 -0.46095 -0.009394 
Wild -0.3059 -0.083164 -0.21661 -0.068971 -0.01448 -0.21237 0.26313 0.16251 -0.25544 0.41572 -0.11077 -0.3604 0.04081 0.058922 0.14975 0.15613 0.12065 0.073178 -0.18961 -0.21946 -6.8884e-05 0.26667 -0.019139 0.064617 0.1981 0.16431 -0.090101 0.015166 0.17557 -0.10731 -0.23458 0.042297 0.036328 0.21612 0.012909 0.31459 0.11025 -0.17411 -0.49247 0.30034 0.21379 -0.39021 -0.10034 0.024277 0.001184 -0.49955 -0.016223 -0.020128 0.027477 0.39292 0.3098 -0.037639 -0.23003 -0.018613 0.077921 0.25218 0.0012679 0.1197 0.094893 -0.092061 -0.079177 0.21459 0.17278 0.30313 -0.050641 -0.24226 0.02307 0.18987 -0.33119 -0.07453 -0.064434 0.39606 0.10288 -0.069478 -0.24795 -0.2713 0.071724 0.41101 0.15293 -0.13583 -0.17343 -0.12308 0.23303 -0.19598 0.07317 0.26238 -0.20528 0.097842 -0.22992 0.067101 0.044601 -0.17714 0.096448 0.078653 0.28904 0.11087 -0.12601 0.3163 -0.44729 -0.020579 
Rice -0.33198 -0.10097 -0.23071 -0.061397 -0.014769 -0.23575 0.28492 0.18536 -0.27156 0.42312 -0.1301 -0.39714 0.023868 0.063445 0.15253 0.1815 0.12992 0.080076 -0.20414 -0.2267 -0.0096608 0.28745 -0.01858 0.075443 0.21481 0.18946 -0.1032 0.022749 0.1907 -0.1158 -0.23106 0.061944 0.027448 0.22996 0.012856 0.35416 0.12167 -0.20098 -0.53427 0.33205 0.22542 -0.41635 -0.10369 0.050336 0.0018348 -0.53993 -0.015536 -0.028895 0.04654 0.42994 0.32575 -0.019492 -0.24542 -0.030139 0.090197 0.261 -0.00331 0.13883 0.097785 -0.11194 -0.077221 0.23895 0.18906 0.31422 -0.051524 -0.24747 0.033315 0.19587 -0.36113 -0.077527 -0.064157 0.43604 0.12057 -0.073165 -0.2735 -0.29621 0.082355 0.45201 0.16294 -0.14796 -0.18261 -0.14809 0.23516 -0.19997 0.083069 0.28036 -0.19758 0.11841 -0.26318 0.071186 0.054325 -0.20129 0.11037 0.095689 0.30131 0.11128 -0.12684 0.36095 -0.48972 -0.0083961 
- -0.28402 -0.063652 -0.18159 -0.037768 -0.0067195 -0.19118 0.20824 0.13468 -0.22286 0.3562 -0.099265 -0.30449 0.018675 0.053438 0.1258 0.1189 0.09652 0.072236 -0.15835 -0.16557 0.0060642 0.25018 -0.0079043 0.062181 0.17461 0.14324 -0.080782 0.019034 0.13679 -0.088014 -0.20173 0.047379 0.01165 0.17757 0.0059789 0.27999 0.09451 -0.15195 -0.42841 0.26417 0.18847 -0.3446 -0.085135 0.054936 -0.0065976 -0.43778 0.0031249 -0.026586 0.048691 0.35476 0.26299 -0.023784 -0.18146 -0.0040104 0.07236 0.21089 0.023477 0.078421 0.075782 -0.080601 -0.056193 0.19533 0.16914 0.25617 -0.053314 -0.18468 0.043186 0.16397 -0.30719 -0.054087 -0.052589 0.33976 0.10039 -0.057247 -0.22788 -0.23431 0.093096 0.35546 0.14933 -0.11495 -0.16123 -0.1245 0.20442 -0.1662 0.062561 0.24529 -0.14644 0.06691 -0.20384 0.040988 0.033302 -0.14215 0.10414 0.07305 0.23034 0.087039 -0.12808 0.26459 -0.39122 -0.0051727 
Diet -0.33075 -0.090347 -0.21642 -0.063525 -0.017162 -0.22902 0.27943 0.1803 -0.27611 0.40883 -0.12852 -0.38432 0.025381 0.064205 0.15264 0.17555 0.12992 0.074283 -0.19853 -0.22342 -0.00094551 0.29401 -0.025897 0.063649 0.19998 0.18609 -0.097111 0.0052455 0.18382 -0.11688 -0.23295 0.056935 0.034092 0.22796 0.016467 0.33395 0.11943 -0.18996 -0.51204 0.32682 0.2194 -0.39917 -0.096222 0.041673 -0.0062512 -0.51981 -0.011913 -0.028692 0.038355 0.42526 0.31356 -0.027797 -0.23717 -0.026293 0.087234 0.25307 -0.0054538 0.13228 0.090695 -0.10944 -0.077635 0.23915 0.18683 0.31075 -0.047187 -0.23345 0.043379 0.18385 -0.34081 -0.074183 -0.063129 0.42087 0.12105 -0.06952 -0.26189 -0.28423 0.074266 0.44504 0.15742 -0.14148 -0.16869 -0.13726 0.23205 -0.19558 0.082336 0.26796 -0.19527 0.11407 -0.24809 0.071169 0.051729 -0.1907 0.10925 0.10345 0.30423 0.10902 -0.12614 0.34245 -0.47618 -0.013882 
Taste -0.34509 -0.088848 -0.23855 -0.063773 -0.023753 -0.241 0.28848 0.18185 -0.29456 0.45053 -0.12422 -0.41836 0.034787 0.075804 0.16142 0.18066 0.13819 0.082809 -0.21265 -0.23665 -0.0011746 0.30572 -0.026809 0.07729 0.21218 0.17908 -0.10825 0.012255 0.19466 -0.12703 -0.2521 0.060372 0.036925 0.22603 0.0071591 0.34541 0.12646 -0.19037 -0.54737 0.34769 0.23742 -0.44171 -0.11193 0.04331 -0.0040017 -0.5424 -0.013113 -0.024842 0.040408 0.43928 0.34518 -0.026527 -0.25725 -0.022826 0.087288 0.27298 0.0070628 0.13519 0.10551 -0.11054 -0.07798 0.24279 0.18552 0.33242 -0.052349 -0.25952 0.032731 0.20797 -0.3633 -0.080245 -0.062525 0.44599 0.11765 -0.080663 -0.27708 -0.30418 0.078884 0.46765 0.16482 -0.15981 -0.19025 -0.13653 0.25069 -0.21762 0.09567 0.29569 -0.2201 0.097396 -0.26436 0.073355 0.056693 -0.19092 0.10811 0.092389 0.31672 0.12435 -0.13279 0.36455 -0.50128 -0.00057025 
Potato -0.3402 -0.089505 -0.22894 -0.063993 -0.023713 -0.23631 0.27776 0.18543 -0.28525 0.42737 -0.1295 -0.39592 0.02234 0.074001 0.1575 0.17491 0.13166 0.077489 -0.20451 -0.22599 -0.00035714 0.30382 -0.023704 0.075798 0.2152 0.17968 -0.10445 0.012263 0.18412 -0.11705 -0.23664 0.051243 0.035599 0.22849 0.012604 0.34902 0.12551 -0.19178 -0.54043 0.33471 0.23312 -0.42642 -0.10196 0.05145 0.0049312 -0.53295 -0.012463 -0.031827 0.043688 0.43533 0.32439 -0.027156 -0.2438 -0.020541 0.085788 0.26485 0.0027681 0.13193 0.097807 -0.11246 -0.082075 0.245 0.18635 0.31931 -0.059861 -0.24696 0.03731 0.2016 -0.35927 -0.076622 -0.058784 0.43446 0.12313 -0.079035 -0.27486 -0.29993 0.084401 0.459 0.16756 -0.15085 -0.1869 -0.14708 0.24893 -0.19778 0.082007 0.28966 -0.20235 0.10043 -0.25345 0.062597 0.050024 -0.19034 0.11415 0.097037 0.31357 0.11558 -0.12836 0.3535 -0.49226 -0.0037372 
Canned -0.35611 -0.089583 -0.24148 -0.060191 -0.019658 -0.24822 0.28605 0.18877 -0.29601 0.45635 -0.13256 -0.4206 0.027721 0.074216 0.16763 0.18272 0.14346 0.086553 -0.21422 -0.23289 -0.0055137 0.31747 -0.023002 0.082057 0.22378 0.18903 -0.11245 0.019364 0.19861 -0.1246 -0.25025 0.067661 0.031523 0.23786 0.011811 0.36264 0.1242 -0.2116 -0.55152 0.35156 0.24649 -0.44426 -0.11263 0.04823 -0.0019009 -0.55899 -0.01083 -0.026806 0.047629 0.45676 0.34959 -0.023745 -0.25469 -0.029521 0.094473 0.27835 0.0083072 0.13325 0.099044 -0.11667 -0.079792 0.25519 0.19505 0.33483 -0.059709 -0.25757 0.044593 0.20888 -0.3769 -0.074958 -0.061913 0.45704 0.12798 -0.084459 -0.28264 -0.31 0.090078 0.48435 0.17207 -0.15991 -0.19329 -0.15217 0.25946 -0.21486 0.088583 0.30034 -0.2124 0.10548 -0.26928 0.070831 0.052895 -0.20011 0.11594 0.09483 0.31669 0.12736 -0.1444 0.36827 -0.50662 0.0028294 
Large -0.36967 -0.10574 -0.25746 -0.067394 -0.028585 -0.27136 0.33408 0.23665 -0.30736 0.47704 -0.1541 -0.46625 0.040622 0.082236 0.15951 0.20727 0.14027 0.08742 -0.24298 -0.2623 -0.014603 0.32653 -0.028857 0.080407 0.23023 0.19843 -0.12464 0.0050862 0.2215 -0.14524 -0.26072 0.068274 0.031989 0.26016 -0.0017894 0.38862 0.1458 -0.21149 -0.60458 0.3864 0.25603 -0.43305 -0.11047 0.051145 -0.004982 -0.59524 -0.021385 -0.038127 0.040054 0.48308 0.35012 -0.024203 -0.30298 -0.042111 0.097813 0.29125 -0.010014 0.16165 0.12389 -0.14486 -0.093587 0.27647 0.20007 0.35579 -0.062712 -0.27617 0.028945 0.22844 -0.38168 -0.082613 -0.083109 0.48428 0.14763 -0.084618 -0.29822 -0.32355 0.082301 0.50921 0.17243 -0.16781 -0.1954 -0.15764 0.25756 -0.2235 0.10609 0.2997 -0.22983 0.13915 -0.29201 0.09013 0.067104 -0.21771 0.11957 0.11204 0.35421 0.11677 -0.13535 0.41439 -0.54543 -0.0076795 
Brown -0.36746 -0.10385 -0.26216 -0.062938 -0.012153 -0.26026 0.30915 0.20615 -0.30579 0.47273 -0.13537 -0.43666 0.030307 0.071285 0.16728 0.18497 0.14648 0.095797 -0.22453 -0.24036 -0.00015532 0.33411 -0.024483 0.084835 0.23484 0.20018 -0.11313 0.013367 0.21123 -0.12881 -0.2627 0.067808 0.034706 0.25026 0.0072152 0.37803 0.12885 -0.22033 -0.57382 0.36746 0.25631 -0.47242 -0.12001 0.054108 -0.0024085 -0.58676 -0.0189 -0.024771 0.044507 0.4795 0.3596 -0.02506 -0.27099 -0.030122 0.096261 0.29431 -1.0136e-05 0.1521 0.10817 -0.11823 -0.094925 0.26469 0.20513 0.35352 -0.057314 -0.27664 0.043221 0.21537 -0.39088 -0.074898 -0.069201 0.48791 0.13377 -0.095901 -0.29202 -0.33065 0.097823 0.50141 0.1859 -0.16408 -0.19767 -0.1592 0.26984 -0.22469 0.089061 0.31605 -0.22568 0.11849 -0.27499 0.080668 0.060925 -0.21338 0.11585 0.10063 0.33613 0.1308 -0.14139 0.38653 -0.54393 -0.011824 
Life -0.32146 -0.094296 -0.21806 -0.054448 -0.023349 -0.23195 0.2974 0.20273 -0.26813 0.40366 -0.13243 -0.41004 0.024956 0.063703 0.13872 0.18075 0.12753 0.074513 -0.21212 -0.23049 -0.0050965 0.28166 -0.021142 0.062984 0.19578 0.17596 -0.1123 0.003294 0.19206 -0.13081 -0.2185 0.060754 0.03705 0.22716 0.0012881 0.32836 0.12783 -0.18284 -0.53069 0.3289 0.21762 -0.37351 -0.086792 0.047166 -0.0051807 -0.51421 -0.021019 -0.03619 0.031028 0.42132 0.30407 -0.021733 -0.25877 -0.03474 0.07547 0.25402 -0.012023 0.13644 0.096699 -0.1251 -0.091256 0.23879 0.18138 0.30978 -0.041807 -0.23813 0.027853 0.19816 -0.33545 -0.066222 -0.079284 0.42168 0.13189 -0.064277 -0.25238 -0.2857 0.070113 0.43358 0.14688 -0.15824 -0.16953 -0.13385 0.21587 -0.19614 0.091018 0.26094 -0.19418 0.12897 -0.24982 0.080483 0.052248 -0.18142 0.10529 0.10155 0.30728 0.10334 -0.10919 0.35935 -0.47925 -0.0063441 
with -0.3691 -0.10077 -0.26649 -0.068558 -0.023217 -0.26873 0.31266 0.21636 -0.32011 0.47845 -0.14054 -0.45949 0.019556 0.076127 0.16381 0.20673 0.14738 0.089888 -0.23299 -0.24721 -0.0076935 0.33399 -0.022846 0.08734 0.22997 0.2155 -0.12201 0.01223 0.21978 -0.13391 -0.26817 0.073873 0.028833 0.26038 0.0048142 0.38984 0.13737 -0.2168 -0.60235 0.38139 0.2666 -0.47282 -0.11916 0.056553 -7.233e-05 -0.59295 -0.016524 -0.027384 0.040941 0.48794 0.3651 -0.020622 -0.28263 -0.039659 0.09556 0.28898 -0.0030227 0.15345 0.1122 -0.13128 -0.08081 0.27409 0.20332 0.35469 -0.059739 -0.2683 0.042257 0.23384 -0.39236 -0.077338 -0.065275 0.49786 0.15199 -0.091361 -0.2947 -0.32802 0.095377 0.52991 0.18426 -0.16874 -0.19816 -0.16641 0.26485 -0.22403 0.10218 0.31199 -0.22453 0.12073 -0.29174 0.081263 0.055615 -0.21847 0.11928 0.1105 0.34359 0.12462 -0.14288 0.40975 -0.54519 0.010491 
Limited -0.35789 -0.095286 -0.23282 -0.059314 -0.019107 -0.24802 0.28054 0.19587 -0.29139 0.42699 -0.13534 -0.41164 0.015971 0.072744 0.15623 0.1831 0.13555 0.081672 -0.21494 -0.22727 -0.0081262 0.3157 -0.02638 0.074075 0.21662 0.18819 -0.10685 0.0095215 0.19177 -0.11817 -0.23881 0.064516 0.028415 0.23226 0.0019574 0.3546 0.12907 -0.20847 -0.5443 0.34498 0.23617 -0.42395 -0.10281 0.063555 0.0021385 -0.55186 -0.0091294 -0.038017 0.050748 0.45615 0.32691 -0.019054 -0.24758 -0.02609 0.094792 0.26797 0.0028507 0.1358 0.09734 -0.12238 -0.084802 0.25811 0.19687 0.33008 -0.055713 -0.23942 0.053782 0.20191 -0.36231 -0.068648 -0.062371 0.45082 0.13362 -0.078619 -0.27721 -0.30551 0.091767 0.47592 0.17358 -0.15388 -0.18506 -0.15466 0.24246 -0.20129 0.07932 0.29203 -0.19289 0.11061 -0.2602 0.070787 0.056518 -0.19647 0.12299 0.1087 0.31617 0.10873 -0.14418 0.36813 -0.50548 -0.0032615 
of -0.32765 -0.073651 -0.20907 -0.051773 -0.0086912 -0.2242 0.23893 0.15127 -0.26693 0.41108 -0.11022 -0.3648 0.0169 0.06589 0.14444 0.14806 0.1228 0.079152 -0.18427 -0.19368 0.011212 0.29207 -0.019458 0.074528 0.20276 0.16776 -0.083247 0.01681 0.16435 -0.092934 -0.22367 0.063794 0.017725 0.20338 0.023915 0.32299 0.10645 -0.19599 -0.48477 0.31015 0.23059 -0.41567 -0.10999 0.044026 0.0030454 -0.48866 0.018577 -0.034516 0.055856 0.41606 0.31433 -0.021748 -0.2044 -0.010816 0.097118 0.25513 0.015857 0.11225 0.082059 -0.10375 -0.064665 0.22193 0.17971 0.29397 -0.054746 -0.22356 0.048438 0.18633 -0.3447 -0.066962 -0.050302 0.41092 0.10232 -0.084957 -0.26097 -0.26979 0.08632 0.42817 0.16635 -0.13615 -0.17185 -0.13391 0.24223 -0.19975 0.063224 0.27817 -0.18743 0.074035 -0.2393 0.052306 0.049142 -0.17648 0.11256 0.079649 0.26785 0.11718 -0.12885 0.32005 -0.4621 0.0019796 
Ingredient -0.32861 -0.085688 -0.21049 -0.061147 -0.018345 -0.2281 0.26491 0.18645 -0.26673 0.4014 -0.12073 -0.38089 0.021303 0.060849 0.14669 0.16638 0.12396 0.074279 -0.20206 -0.22358 -0.00086222 0.28405 -0.022589 0.071512 0.20289 0.17113 -0.10503 0.010598 0.17992 -0.1132 -0.23021 0.056427 0.030897 0.2226 -0.00084777 0.32604 0.11769 -0.18127 -0.51489 0.32084 0.21715 -0.38344 -0.097387 0.04655 0.001968 -0.51568 -0.013263 -0.044204 0.048004 0.41967 0.30736 -0.025985 -0.23626 -0.017335 0.083195 0.2548 -0.005055 0.12371 0.086297 -0.11119 -0.084426 0.23766 0.18522 0.30556 -0.044897 -0.22696 0.038299 0.18966 -0.34155 -0.069506 -0.062816 0.41508 0.12169 -0.065528 -0.25796 -0.28448 0.078661 0.42805 0.16082 -0.15363 -0.179 -0.1365 0.22439 -0.19874 0.071328 0.27516 -0.18778 0.11259 -0.24576 0.065093 0.051865 -0.18271 0.11201 0.10166 0.30038 0.097459 -0.1314 0.34161 -0.4722 -0.013247 
LID -0.30532 -0.073469 -0.19351 -0.051433 -0.010946 -0.20136 0.23307 0.14696 -0.24045 0.36444 -0.10866 -0.32501 0.020251 0.054998 0.14404 0.14076 0.11732 0.076863 -0.18197 -0.19129 0.0036212 0.26996 -0.019568 0.067156 0.19228 0.15573 -0.078367 0.022685 0.15906 -0.094197 -0.2127 0.062127 0.02191 0.20013 0.0077044 0.30184 0.11335 -0.17815 -0.45598 0.27763 0.2034 -0.37363 -0.10092 0.056324 0.0051224 -0.4726 0.0062477 -0.037541 0.050523 0.39518 0.27874 -0.026245 -0.2001 -0.015741 0.088169 0.22966 0.0086253 0.11653 0.081561 -0.091091 -0.078352 0.21959 0.17636 0.28477 -0.050451 -0.20706 0.043482 0.17 -0.32688 -0.064019 -0.055937 0.37516 0.096779 -0.072116 -0.25034 -0.26151 0.084815 0.39254 0.15305 -0.12979 -0.16949 -0.12656 0.2068 -0.18749 0.057478 0.25319 -0.17343 0.091039 -0.21856 0.059841 0.052993 -0.15883 0.11089 0.089885 0.25551 0.098393 -0.1304 0.31638 -0.43765 -0.023391 
Canine -0.34799 -0.082984 -0.23689 -0.062454 -0.015485 -0.24813 0.28521 0.18888 -0.28404 0.45206 -0.12596 -0.41262 0.028907 0.066588 0.15887 0.17266 0.13894 0.092209 -0.21435 -0.23461 -0.0008959 0.31556 -0.023533 0.080529 0.2149 0.18237 -0.10429 0.013403 0.18944 -0.11889 -0.25153 0.070644 0.021678 0.23299 0.0036216 0.35441 0.11633 -0.20904 -0.53602 0.34635 0.23952 -0.42991 -0.11294 0.049082 -0.0065781 -0.55026 -0.0098791 -0.026651 0.039753 0.45123 0.33465 -0.023448 -0.25713 -0.03324 0.093895 0.27637 0.0041317 0.12768 0.099339 -0.11793 -0.082394 0.25084 0.19046 0.3326 -0.056839 -0.24876 0.041534 0.20856 -0.36131 -0.065217 -0.06543 0.45004 0.12749 -0.084474 -0.27369 -0.3034 0.092179 0.47968 0.1684 -0.15474 -0.18365 -0.1443 0.25039 -0.21397 0.082845 0.29158 -0.20931 0.10876 -0.26321 0.074809 0.063436 -0.19643 0.11879 0.10162 0.31095 0.11878 -0.14192 0.3714 -0.50267 -0.0077934 
Health -0.34081 -0.09424 -0.23627 -0.060581 -0.014889 -0.24393 0.28493 0.18959 -0.28322 0.43594 -0.12544 -0.40143 0.023109 0.066154 0.15919 0.17759 0.13078 0.086202 -0.2082 -0.22488 -0.0050371 0.31117 -0.026323 0.078389 0.22049 0.19053 -0.10473 0.019041 0.19579 -0.12294 -0.24491 0.068355 0.027243 0.2327 0.0064962 0.35165 0.12578 -0.2077 -0.53483 0.3397 0.24418 -0.43037 -0.1094 0.054898 -0.0038471 -0.54075 -0.010005 -0.029027 0.036525 0.44995 0.32363 -0.025497 -0.24497 -0.027482 0.092096 0.27012 0.0027796 0.13368 0.098933 -0.11453 -0.08428 0.24797 0.19351 0.32874 -0.057438 -0.24128 0.042918 0.20352 -0.36155 -0.074193 -0.060516 0.44659 0.12848 -0.082616 -0.27779 -0.3005 0.091662 0.47395 0.17832 -0.15099 -0.18702 -0.14535 0.24392 -0.20813 0.078287 0.28389 -0.20257 0.10519 -0.25994 0.078133 0.055631 -0.19232 0.11734 0.10337 0.30893 0.11267 -0.13873 0.36697 -0.49972 -0.0062451 
Lamb -0.32882 -0.087767 -0.21636 -0.060939 -0.0086748 -0.22591 0.26283 0.16936 -0.27151 0.41161 -0.11061 -0.37646 0.022794 0.06593 0.15285 0.16084 0.11909 0.075884 -0.19156 -0.21623 0.0035132 0.28984 -0.024205 0.077334 0.20531 0.18147 -0.090257 0.010233 0.17957 -0.10899 -0.2288 0.057782 0.028451 0.21662 0.0093133 0.33455 0.11284 -0.1903 -0.49986 0.31037 0.21848 -0.41 -0.10548 0.047996 -0.0015958 -0.51475 -0.0098679 -0.028357 0.048724 0.41619 0.30737 -0.024729 -0.22823 -0.023095 0.087271 0.25224 0.0026824 0.1207 0.095702 -0.1021 -0.076928 0.22782 0.18287 0.30531 -0.047953 -0.23138 0.035372 0.18815 -0.34282 -0.074675 -0.057976 0.42015 0.11445 -0.074522 -0.2619 -0.28309 0.084209 0.43678 0.16132 -0.14539 -0.17633 -0.13743 0.2353 -0.19855 0.073509 0.27285 -0.19503 0.095104 -0.24664 0.071378 0.054865 -0.18279 0.11132 0.096646 0.2956 0.11118 -0.12905 0.3379 -0.475 -0.015568 
Formula -0.31479 -0.081574 -0.20445 -0.059351 -0.015387 -0.20942 0.24775 0.16715 -0.2538 0.37244 -0.11556 -0.35753 0.018509 0.058694 0.13486 0.15511 0.11 0.07054 -0.18547 -0.20579 0.00027021 0.27198 -0.018602 0.073302 0.20078 0.16749 -0.089259 0.01055 0.16709 -0.10221 -0.20952 0.053111 0.030414 0.20902 0.010513 0.32301 0.11126 -0.1692 -0.49315 0.29663 0.20849 -0.37726 -0.093882 0.052228 0.0067541 -0.48613 -0.0070438 -0.037063 0.046325 0.39623 0.28724 -0.022318 -0.22211 -0.015295 0.077602 0.23715 -0.0030842 0.11608 0.084781 -0.10347 -0.080512 0.2174 0.17441 0.28528 -0.046083 -0.21594 0.024769 0.18556 -0.33074 -0.065602 -0.054306 0.39257 0.11365 -0.067151 -0.25286 -0.27146 0.076212 0.40958 0.15592 -0.14064 -0.16971 -0.13099 0.21674 -0.17956 0.072711 0.25764 -0.17988 0.095034 -0.23561 0.057138 0.047091 -0.17419 0.10887 0.093306 0.28343 0.10037 -0.11578 0.32653 -0.44853 -0.010136 
the -0.29514 -0.072392 -0.21689 -0.067292 -0.0094349 -0.20188 0.25535 0.16102 -0.25369 0.41016 -0.11222 -0.35974 0.049662 0.063112 0.14742 0.14758 0.12094 0.061691 -0.18338 -0.21411 0.0076101 0.2361 -0.0049279 0.070071 0.20115 0.14854 -0.099782 0.013753 0.18073 -0.10452 -0.22662 0.040312 0.046922 0.2104 0.025645 0.31282 0.1065 -0.16044 -0.49589 0.29796 0.2116 -0.37615 -0.10199 0.013573 0.0024092 -0.49854 -0.014271 -0.029599 0.033143 0.37746 0.31677 -0.032987 -0.22314 -0.0084354 0.066179 0.24925 -0.0072099 0.11746 0.095146 -0.092686 -0.08017 0.20927 0.15859 0.29233 -0.046064 -0.24709 0.0081046 0.18823 -0.32707 -0.085684 -0.061574 0.38571 0.093898 -0.071875 -0.24162 -0.27546 0.05924 0.3831 0.13812 -0.13898 -0.17227 -0.11808 0.22062 -0.19683 0.071835 0.26616 -0.2093 0.092489 -0.23844 0.051924 0.037303 -0.1777 0.08897 0.072732 0.29111 0.111 -0.12102 0.3059 -0.43382 -0.019192 
Diets -0.37916 -0.091703 -0.24853 -0.075251 -0.016247 -0.26262 0.29947 0.18887 -0.31324 0.47663 -0.13865 -0.42186 0.029395 0.076855 0.17575 0.178 0.14825 0.087572 -0.22378 -0.24226 0.0094263 0.33515 -0.025335 0.085529 0.23075 0.19821 -0.10569 0.010594 0.20269 -0.11655 -0.2681 0.066828 0.039244 0.25456 0.023028 0.38178 0.129 -0.21702 -0.57462 0.36179 0.25198 -0.47436 -0.12168 0.049327 -0.011041 -0.59544 0.0018181 -0.030822 0.051976 0.48717 0.36603 -0.030258 -0.25859 -0.02147 0.10335 0.29761 0.010051 0.14294 0.10662 -0.12157 -0.089741 0.26759 0.21442 0.3556 -0.062974 -0.27256 0.051133 0.21828 -0.39533 -0.087411 -0.066339 0.48498 0.12859 -0.097484 -0.30197 -0.33649 0.098186 0.51009 0.18317 -0.16382 -0.19343 -0.15808 0.27104 -0.22766 0.077365 0.31906 -0.22281 0.11012 -0.27951 0.072904 0.061498 -0.21133 0.12585 0.1059 0.33615 0.13511 -0.15129 0.38215 -0.54518 -0.012407 
Protection -0.37678 -0.09664 -0.24789 -0.062419 -0.018856 -0.25773 0.30425 0.20181 -0.30541 0.46227 -0.13893 -0.43307 0.022783 0.071328 0.16084 0.19087 0.14027 0.0916 -0.22538 -0.24229 -0.0033177 0.33602 -0.025751 0.087306 0.22997 0.19726 -0.10924 0.010851 0.20601 -0.12507 -0.25756 0.074372 0.030531 0.25135 0.0057601 0.38157 0.13216 -0.21774 -0.57493 0.36326 0.24936 -0.4572 -0.11819 0.062609 -0.002926 -0.583 -0.0066462 -0.036849 0.056293 0.48049 0.35098 -0.024591 -0.27328 -0.03185 0.10131 0.28678 0.0026494 0.14643 0.10511 -0.12673 -0.089136 0.26768 0.21265 0.35054 -0.057626 -0.25881 0.045242 0.21902 -0.39026 -0.07252 -0.069797 0.48022 0.14192 -0.090699 -0.30039 -0.32637 0.099843 0.50405 0.17994 -0.1671 -0.19659 -0.15794 0.2603 -0.22168 0.092421 0.31133 -0.21769 0.1204 -0.28025 0.081019 0.062832 -0.20996 0.12573 0.10901 0.3321 0.12715 -0.14187 0.39747 -0.54315 -0.0076138 
Duck -0.32415 -0.087909 -0.21748 -0.057453 -0.022648 -0.22624 0.28454 0.18213 -0.27165 0.40316 -0.13148 -0.39657 0.031486 0.066814 0.14095 0.17555 0.1268 0.077178 -0.20349 -0.22114 -0.0084948 0.29167 -0.023861 0.070712 0.19403 0.17421 -0.10177 0.0075216 0.1882 -0.12123 -0.22839 0.060812 0.031257 0.22193 0.0057452 0.33507 0.11999 -0.17864 -0.51183 0.32979 0.21458 -0.38666 -0.091863 0.044719 -0.0086355 -0.51338 -0.014163 -0.032733 0.043927 0.42035 0.3092 -0.022376 -0.25054 -0.0335 0.089199 0.25424 -0.003944 0.13126 0.096457 -0.11934 -0.076608 0.22986 0.18167 0.30778 -0.040506 -0.22912 0.037063 0.19206 -0.33108 -0.072003 -0.068326 0.41944 0.12592 -0.068117 -0.26056 -0.28058 0.071596 0.4378 0.1507 -0.14847 -0.17248 -0.12996 0.22549 -0.1954 0.093887 0.26894 -0.19811 0.11591 -0.24716 0.075311 0.06105 -0.18436 0.10381 0.097506 0.29616 0.1105 -0.12067 0.35164 -0.47487 -0.0013304 
Mini -0.33392 -0.089878 -0.21759 -0.060132 -0.019381 -0.23894 0.28846 0.18465 -0.26982 0.41892 -0.12406 -0.38538 0.028559 0.064472 0.14855 0.17348 0.12381 0.078563 -0.20408 -0.22248 0.0041991 0.29723 -0.025477 0.076477 0.213 0.18063 -0.10104 0.013358 0.18814 -0.11179 -0.23715 0.063922 0.037747 0.22996 0.015662 0.34833 0.12143 -0.19606 -0.52778 0.3231 0.22377 -0.40443 -0.1016 0.049973 -0.0073802 -0.53071 -0.0090341 -0.036874 0.052964 0.43695 0.31341 -0.021005 -0.248 -0.025145 0.091735 0.26228 -0.00030598 0.13766 0.098525 -0.11894 -0.085332 0.24129 0.19355 0.3135 -0.048059 -0.23857 0.03312 0.19369 -0.35849 -0.07746 -0.068794 0.43006 0.12328 -0.078727 -0.27492 -0.28821 0.086666 0.44372 0.15527 -0.15051 -0.17905 -0.14519 0.23451 -0.20923 0.076437 0.27556 -0.19862 0.11986 -0.25952 0.073502 0.062436 -0.18934 0.11146 0.095759 0.29714 0.10841 -0.12674 0.35895 -0.48501 -0.011421 
Nutrition -0.36743 -0.10129 -0.25586 -0.063555 -0.025263 -0.26096 0.31715 0.21409 -0.30611 0.47617 -0.14497 -0.44908 0.038569 0.077238 0.1688 0.19392 0.14577 0.092434 -0.23542 -0.25152 -0.0042633 0.32931 -0.02559 0.085118 0.2301 0.19254 -0.11822 0.01138 0.21641 -0.13594 -0.26355 0.068743 0.034953 0.25526 0.0063003 0.37901 0.13764 -0.2138 -0.58653 0.37619 0.2573 -0.44764 -0.11591 0.045039 -0.0036348 -0.58792 -0.018844 -0.033242 0.041741 0.47902 0.35803 -0.027867 -0.28489 -0.03557 0.096672 0.29418 -0.0045445 0.1518 0.11107 -0.13147 -0.09483 0.26761 0.2018 0.35654 -0.058544 -0.27455 0.039379 0.22215 -0.38894 -0.082275 -0.077956 0.47814 0.13653 -0.085545 -0.29217 -0.32418 0.082592 0.50091 0.17422 -0.17065 -0.19829 -0.15117 0.26658 -0.22652 0.098346 0.30675 -0.23039 0.12595 -0.28155 0.084985 0.063705 -0.20896 0.11897 0.10573 0.34345 0.12744 -0.13874 0.4009 -0.5406 -0.005594 
The -0.31472 -0.078298 -0.20489 -0.057242 -0.017812 -0.21913 0.25556 0.16411 -0.25969 0.40113 -0.1186 -0.37276 0.028988 0.053335 0.13882 0.16551 0.12529 0.074229 -0.18892 -0.21121 -0.0037177 0.2716 -0.018741 0.063481 0.1896 0.16927 -0.1 0.019624 0.17573 -0.11242 -0.22761 0.056666 0.032575 0.20796 0.012291 0.3151 0.11812 -0.17241 -0.50172 0.30667 0.2143 -0.3828 -0.093623 0.037742 0.0054751 -0.49626 -0.011837 -0.024951 0.040289 0.40125 0.30515 -0.024718 -0.22085 -0.021976 0.081037 0.24508 0.004946 0.11782 0.090025 -0.10294 -0.068293 0.22199 0.17821 0.29586 -0.045927 -0.22555 0.036675 0.18615 -0.33074 -0.064823 -0.056747 0.39878 0.11545 -0.064102 -0.25474 -0.2603 0.078527 0.41493 0.14895 -0.14473 -0.17382 -0.12921 0.22293 -0.19268 0.083835 0.27113 -0.196 0.10093 -0.23442 0.061007 0.038977 -0.174 0.099276 0.087699 0.27897 0.104 -0.12885 0.32506 -0.45538 -0.0006288 
Of -0.24356 -0.072828 -0.17623 -0.042896 -0.016866 -0.17258 0.20408 0.13882 -0.19875 0.32724 -0.086541 -0.29204 0.021897 0.04587 0.10279 0.12403 0.10531 0.059407 -0.1577 -0.16804 -0.0076601 0.21127 -0.0060044 0.050789 0.15983 0.12738 -0.077896 0.017824 0.14547 -0.084714 -0.17773 0.046017 0.029702 0.17091 0.012877 0.26109 0.092606 -0.1393 -0.40002 0.23802 0.16899 -0.3078 -0.073086 0.033082 0.002928 -0.38738 -0.019761 -0.025359 0.033395 0.30808 0.25059 -0.0195 -0.19758 -0.013819 0.057244 0.19777 -0.0082207 0.098201 0.067508 -0.077862 -0.051077 0.17604 0.12833 0.22877 -0.037346 -0.19335 0.014531 0.1384 -0.26669 -0.045492 -0.046195 0.32546 0.077906 -0.051683 -0.20158 -0.21014 0.053645 0.3233 0.12197 -0.12263 -0.14003 -0.10216 0.18597 -0.15522 0.066516 0.20888 -0.15645 0.082587 -0.19321 0.050732 0.040965 -0.13786 0.080132 0.064948 0.23232 0.081315 -0.086927 0.26913 -0.36022 -0.0013989 
Meal -0.29418 -0.090934 -0.19051 -0.04931 -0.020235 -0.21106 0.24808 0.17463 -0.23351 0.35294 -0.12012 -0.36303 0.0060391 0.048956 0.12292 0.16487 0.11536 0.0749 -0.18758 -0.19987 -0.013175 0.26871 -0.025401 0.063858 0.17958 0.16651 -0.099094 0.015284 0.167 -0.11299 -0.19421 0.05455 0.019674 0.19876 -0.010298 0.29555 0.11914 -0.1691 -0.47254 0.2962 0.19256 -0.34214 -0.077761 0.061954 0.0075183 -0.46691 -0.0194 -0.032422 0.042146 0.38804 0.27325 -0.014332 -0.21241 -0.036299 0.076954 0.22072 -0.0017012 0.12159 0.074396 -0.1093 -0.075571 0.22049 0.17129 0.27515 -0.040597 -0.20269 0.039846 0.17213 -0.31333 -0.055028 -0.057461 0.37831 0.1239 -0.052958 -0.24073 -0.25223 0.077629 0.40392 0.14609 -0.14545 -0.16538 -0.12623 0.19642 -0.16665 0.076667 0.24579 -0.16 0.1144 -0.22446 0.071528 0.042284 -0.16605 0.10157 0.10483 0.26206 0.084115 -0.111 0.32409 -0.43457 0.007624 
Medium -0.33634 -0.093711 -0.23321 -0.061481 -0.024916 -0.24629 0.29305 0.18494 -0.28665 0.44881 -0.12618 -0.40765 0.028549 0.076003 0.15772 0.18046 0.13658 0.081251 -0.21307 -0.23059 -0.0030188 0.30457 -0.025767 0.076036 0.21328 0.18207 -0.10767 0.012541 0.19003 -0.12446 -0.24423 0.058686 0.036328 0.22716 0.011131 0.34985 0.12743 -0.19647 -0.54428 0.34706 0.24162 -0.43018 -0.10234 0.042564 -0.0029803 -0.53767 -0.017145 -0.022428 0.036996 0.44334 0.33301 -0.025068 -0.25084 -0.029572 0.089518 0.27428 0.0046427 0.1294 0.10117 -0.11503 -0.081501 0.24199 0.182 0.32635 -0.05898 -0.25669 0.036365 0.2057 -0.36125 -0.07576 -0.063859 0.44541 0.12571 -0.082187 -0.27256 -0.29725 0.083067 0.46673 0.16335 -0.15363 -0.18553 -0.14163 0.25084 -0.20935 0.089688 0.28794 -0.21068 0.10383 -0.25711 0.074455 0.055713 -0.19046 0.10838 0.096004 0.31183 0.12037 -0.13255 0.36326 -0.4965 0.0030394 
Turkey -0.39229 -0.093986 -0.26959 -0.070911 -0.017236 -0.27883 0.30373 0.20137 -0.32431 0.50131 -0.13827 -0.44803 0.028196 0.081594 0.18522 0.18878 0.152 0.097944 -0.23177 -0.25006 0.0052499 0.35007 -0.027273 0.098637 0.24329 0.2032 -0.11049 0.010597 0.21146 -0.1262 -0.2844 0.077152 0.024805 0.25968 0.016244 0.39338 0.12947 -0.23321 -0.58785 0.38145 0.27276 -0.50839 -0.135 0.05373 -0.0074383 -0.61232 0.0031111 -0.029462 0.055063 0.50991 0.38021 -0.025162 -0.27541 -0.026835 0.11085 0.30829 0.010875 0.14675 0.11589 -0.12216 -0.08231 0.27975 0.21171 0.36877 -0.070781 -0.27847 0.059167 0.22944 -0.41089 -0.08235 -0.061933 0.51188 0.13881 -0.09974 -0.31128 -0.34564 0.10716 0.53651 0.19424 -0.17042 -0.204 -0.16456 0.28872 -0.23412 0.087117 0.33272 -0.23518 0.10736 -0.29439 0.07349 0.067666 -0.22244 0.13028 0.10851 0.34932 0.14598 -0.16221 0.40703 -0.5646 -0.0059479 
Weight -0.33529 -0.093042 -0.23174 -0.058107 -0.017997 -0.24088 0.28615 0.18791 -0.28065 0.43376 -0.12769 -0.40744 0.028203 0.071884 0.15377 0.17818 0.13097 0.080756 -0.20432 -0.22862 -0.0057614 0.29801 -0.022938 0.071421 0.20701 0.18497 -0.10072 0.0070955 0.19433 -0.11845 -0.23527 0.058503 0.032789 0.22583 0.013584 0.34974 0.12091 -0.19995 -0.52589 0.33958 0.23377 -0.41643 -0.10108 0.043587 -0.006344 -0.53562 -0.013076 -0.021979 0.037105 0.42917 0.32652 -0.025412 -0.25259 -0.034143 0.087877 0.26511 0.0017409 0.13455 0.10483 -0.11942 -0.079416 0.24259 0.17844 0.32185 -0.056366 -0.25111 0.036541 0.19871 -0.35178 -0.075632 -0.062155 0.44035 0.12189 -0.079946 -0.26154 -0.29999 0.080232 0.46097 0.15561 -0.14431 -0.17621 -0.14177 0.24198 -0.19915 0.086025 0.27827 -0.20659 0.10567 -0.25864 0.077521 0.058168 -0.19525 0.10612 0.093714 0.30988 0.11722 -0.13271 0.35427 -0.48483 0.0017397 
Adult. -0.35472 -0.097923 -0.24339 -0.063571 -0.014598 -0.24812 0.2921 0.1903 -0.29508 0.44789 -0.13067 -0.41642 0.025309 0.070648 0.16076 0.18212 0.13759 0.087649 -0.2144 -0.23079 -0.0041953 0.32336 -0.027193 0.08272 0.22103 0.1906 -0.10756 0.013714 0.19752 -0.12568 -0.25238 0.067628 0.029812 0.23386 0.0066079 0.36403 0.12553 -0.20974 -0.5422 0.34922 0.24334 -0.44641 -0.11044 0.05974 -0.0028413 -0.55608 -0.0062428 -0.025166 0.049924 0.45937 0.33662 -0.02127 -0.25363 -0.032773 0.099501 0.27681 -0.0014993 0.14045 0.10098 -0.11937 -0.079706 0.24894 0.19734 0.33699 -0.058807 -0.25032 0.049986 0.21277 -0.3756 -0.075857 -0.064584 0.45846 0.13528 -0.085196 -0.2886 -0.30671 0.098111 0.48904 0.17495 -0.15249 -0.18582 -0.15243 0.25672 -0.20589 0.085907 0.29447 -0.21178 0.11472 -0.26506 0.07484 0.061706 -0.19861 0.12108 0.10769 0.31432 0.12207 -0.14166 0.37459 -0.51059 -0.0046631 
Bites -0.36858 -0.096909 -0.2387 -0.064211 -0.024823 -0.25138 0.29049 0.19395 -0.30485 0.44084 -0.13847 -0.42552 0.017004 0.072405 0.15729 0.18413 0.14207 0.083346 -0.22127 -0.2343 -0.0052319 0.33077 -0.030221 0.07695 0.22013 0.19856 -0.10708 0.0062334 0.20083 -0.11892 -0.25167 0.067282 0.035054 0.24182 0.0013334 0.36587 0.13052 -0.20786 -0.56489 0.36098 0.24274 -0.4472 -0.10598 0.057622 0.0015852 -0.56461 -0.011589 -0.033962 0.05221 0.47032 0.34588 -0.023018 -0.25977 -0.025966 0.099314 0.27823 -0.001016 0.14422 0.095495 -0.12043 -0.086635 0.26315 0.20726 0.34121 -0.056054 -0.25756 0.056757 0.20748 -0.37625 -0.072034 -0.061605 0.46659 0.13551 -0.082661 -0.28784 -0.31611 0.095202 0.49714 0.17883 -0.1612 -0.18554 -0.15363 0.2551 -0.2119 0.087214 0.30416 -0.20283 0.11655 -0.26552 0.07306 0.056324 -0.20721 0.11678 0.11141 0.32423 0.11554 -0.14184 0.38181 -0.52734 0.004455 
canin -0.34697 -0.098354 -0.2331 -0.064833 -0.030584 -0.25519 0.32064 0.22171 -0.29041 0.44556 -0.14861 -0.43738 0.03281 0.069411 0.15609 0.19523 0.1438 0.085146 -0.22993 -0.25069 -0.0092541 0.30822 -0.029796 0.074308 0.20899 0.18633 -0.12299 0.0069667 0.20724 -0.13831 -0.2445 0.065673 0.041383 0.24823 -0.0013366 0.36173 0.13777 -0.19945 -0.56631 0.36396 0.2269 -0.39712 -0.10172 0.039248 -0.0068577 -0.56645 -0.031953 -0.034666 0.03657 0.45971 0.33426 -0.024033 -0.28559 -0.039986 0.091248 0.28281 -0.015388 0.14968 0.10837 -0.13381 -0.098382 0.26195 0.19562 0.33237 -0.047324 -0.26705 0.029672 0.21026 -0.35916 -0.079962 -0.081457 0.45353 0.13803 -0.07361 -0.27422 -0.30612 0.071923 0.47978 0.15431 -0.16903 -0.18505 -0.14752 0.24495 -0.21534 0.097534 0.28202 -0.21594 0.14542 -0.26906 0.085964 0.064915 -0.2054 0.11437 0.11076 0.33982 0.10939 -0.12189 0.38571 -0.523 -0.0085597 
royal -0.33161 -0.09163 -0.22202 -0.05964 -0.027276 -0.23421 0.28396 0.1925 -0.27228 0.4214 -0.12821 -0.40813 0.02832 0.069708 0.15214 0.18045 0.13381 0.082107 -0.21084 -0.23008 -0.0097047 0.30007 -0.02488 0.076086 0.20341 0.17961 -0.10833 0.014717 0.19223 -0.1227 -0.23317 0.060093 0.026739 0.22907 0.0031176 0.34123 0.12105 -0.19005 -0.52899 0.33406 0.22396 -0.39541 -0.094278 0.048514 -0.0067548 -0.52507 -0.0096815 -0.03123 0.040106 0.43241 0.31277 -0.023117 -0.25391 -0.030303 0.091799 0.25821 -0.0033003 0.13309 0.10404 -0.12594 -0.077482 0.24326 0.1836 0.31174 -0.056376 -0.23628 0.03627 0.20199 -0.34144 -0.076887 -0.065757 0.42231 0.12724 -0.07002 -0.26954 -0.28613 0.077228 0.45364 0.15429 -0.1497 -0.17621 -0.1378 0.22815 -0.19716 0.091259 0.27381 -0.20298 0.11389 -0.25616 0.074303 0.059294 -0.18721 0.11337 0.10097 0.31087 0.11046 -0.12917 0.36279 -0.48007 -0.0061072 
Sweet -0.34024 -0.092986 -0.21413 -0.063109 -0.018211 -0.23797 0.27698 0.19358 -0.27377 0.41298 -0.12832 -0.3927 0.020269 0.065657 0.14837 0.18227 0.1301 0.079038 -0.20735 -0.22883 0.00040923 0.2995 -0.020196 0.067382 0.2106 0.18003 -0.10403 0.010261 0.18641 -0.11528 -0.23498 0.060772 0.033722 0.23376 0.0032708 0.3421 0.1242 -0.19511 -0.53308 0.33438 0.21957 -0.39561 -0.099178 0.05453 0.0028553 -0.5292 -0.011149 -0.040358 0.050602 0.43699 0.31474 -0.026107 -0.24577 -0.024124 0.087809 0.26111 -0.002566 0.13322 0.086719 -0.11406 -0.088428 0.25133 0.19401 0.31477 -0.050475 -0.23792 0.038236 0.19294 -0.3521 -0.070322 -0.064719 0.42976 0.13074 -0.072663 -0.274 -0.29304 0.083639 0.44481 0.16342 -0.15672 -0.17848 -0.14492 0.22841 -0.20051 0.081938 0.2809 -0.19721 0.1173 -0.25612 0.070044 0.053793 -0.19111 0.11315 0.10996 0.30675 0.10353 -0.12993 0.35785 -0.48748 -0.01213 
Plan -0.32192 -0.078271 -0.22182 -0.060003 -0.015197 -0.2304 0.26056 0.16554 -0.26645 0.42008 -0.11863 -0.37612 0.028432 0.068008 0.14671 0.15624 0.13128 0.082816 -0.19172 -0.21348 0.0013035 0.28771 -0.020926 0.074839 0.20313 0.17073 -0.098486 0.012729 0.17711 -0.10551 -0.23421 0.0624 0.02422 0.21783 0.009149 0.33422 0.11509 -0.19296 -0.50803 0.31552 0.22926 -0.41154 -0.11189 0.042663 -0.0025803 -0.51069 -0.0095247 -0.029505 0.047483 0.41957 0.3193 -0.020674 -0.23166 -0.030865 0.087153 0.25799 0.0043332 0.12712 0.093455 -0.10053 -0.074669 0.23147 0.17282 0.30287 -0.056054 -0.23954 0.036102 0.1938 -0.34446 -0.068007 -0.060225 0.42371 0.11363 -0.084986 -0.25771 -0.28284 0.085303 0.43653 0.16188 -0.14757 -0.17743 -0.14167 0.23994 -0.20099 0.075594 0.27618 -0.19971 0.10086 -0.25135 0.066347 0.057244 -0.18177 0.10686 0.087553 0.28446 0.11752 -0.13041 0.34586 -0.47505 -0.0014236 
Healthy -0.34088 -0.09368 -0.23771 -0.06016 -0.016498 -0.24469 0.28728 0.1882 -0.28339 0.4383 -0.12561 -0.40551 0.024843 0.06609 0.15842 0.17737 0.13596 0.08652 -0.21194 -0.22951 -0.0058324 0.3048 -0.025419 0.077952 0.21685 0.18716 -0.10709 0.015405 0.19702 -0.12414 -0.24451 0.06742 0.031588 0.23092 0.0095849 0.35208 0.12275 -0.2071 -0.53274 0.34139 0.24214 -0.42544 -0.10985 0.047911 -0.0017939 -0.54148 -0.015819 -0.026884 0.034703 0.44419 0.32762 -0.024283 -0.2476 -0.030315 0.09154 0.27295 -0.0013836 0.13342 0.10007 -0.11512 -0.083885 0.24424 0.18671 0.32623 -0.053476 -0.24632 0.041649 0.20369 -0.35956 -0.073803 -0.060463 0.44953 0.12459 -0.082272 -0.27179 -0.29925 0.08489 0.47053 0.17301 -0.1521 -0.18516 -0.14313 0.24606 -0.20598 0.08045 0.28594 -0.20681 0.1072 -0.25938 0.077714 0.058836 -0.19364 0.11542 0.099021 0.31014 0.11567 -0.13601 0.36334 -0.49774 -0.0043293 
Basics -0.39036 -0.098554 -0.26076 -0.069994 -0.015941 -0.26921 0.29898 0.19403 -0.31922 0.47568 -0.14036 -0.44286 0.023272 0.078904 0.17651 0.18697 0.14969 0.098349 -0.2272 -0.24662 0.0023759 0.35048 -0.025386 0.089686 0.23835 0.20951 -0.11277 0.010856 0.20797 -0.1228 -0.26923 0.06892 0.024356 0.25113 0.0086626 0.38627 0.1303 -0.2268 -0.58917 0.37269 0.2648 -0.48636 -0.11771 0.061335 -0.0038069 -0.59934 -0.0064787 -0.029115 0.047462 0.49524 0.36557 -0.025219 -0.2655 -0.024951 0.10302 0.29853 0.0094255 0.14657 0.10316 -0.12309 -0.090858 0.27213 0.21496 0.36145 -0.066652 -0.27032 0.053369 0.22674 -0.40522 -0.077669 -0.067921 0.49627 0.13931 -0.091051 -0.30444 -0.33752 0.10741 0.52299 0.19001 -0.16575 -0.2021 -0.16403 0.27662 -0.22511 0.087961 0.31778 -0.22175 0.10904 -0.2886 0.072202 0.059182 -0.21363 0.13252 0.10585 0.33916 0.13336 -0.15824 0.39955 -0.55362 -0.0035801 
lbs. -0.38965 -0.096266 -0.26614 -0.068677 -0.015682 -0.25966 0.31396 0.19949 -0.3168 0.48782 -0.14986 -0.44577 0.038722 0.083659 0.17127 0.18137 0.14615 0.092693 -0.22876 -0.24689 0.0040777 0.3396 -0.017038 0.079993 0.24234 0.19855 -0.11188 0.017745 0.21112 -0.12974 -0.26082 0.063266 0.028384 0.25375 0.023567 0.39637 0.13591 -0.22138 -0.59149 0.37467 0.26399 -0.47834 -0.11908 0.056029 -0.0038581 -0.60005 -0.011559 -0.029847 0.045172 0.47941 0.37328 -0.029576 -0.27215 -0.029439 0.098799 0.29718 0.0054255 0.14641 0.11109 -0.12778 -0.093904 0.26518 0.2059 0.35895 -0.062881 -0.27816 0.033317 0.22594 -0.40774 -0.08496 -0.070958 0.48663 0.12703 -0.094102 -0.30462 -0.33478 0.097363 0.5088 0.18131 -0.16271 -0.20287 -0.1567 0.27773 -0.22975 0.087467 0.314 -0.23047 0.10933 -0.28832 0.073866 0.060105 -0.21146 0.12561 0.10167 0.34156 0.12981 -0.14917 0.38903 -0.54416 -0.0091909 
BLUE -0.30899 -0.080977 -0.20498 -0.052946 -0.014568 -0.22195 0.2626 0.16839 -0.2571 0.39638 -0.11215 -0.3714 0.021464 0.06183 0.14327 0.16555 0.11807 0.077634 -0.18759 -0.21327 0.00071665 0.27847 -0.020519 0.071121 0.19562 0.1793 -0.092293 0.011061 0.16861 -0.10889 -0.22134 0.056339 0.026787 0.20873 0.011176 0.31875 0.11098 -0.18305 -0.48722 0.30859 0.21636 -0.388 -0.093824 0.048275 -0.0052718 -0.49264 -0.0085645 -0.028271 0.039298 0.40986 0.29763 -0.025455 -0.22312 -0.026109 0.081791 0.24303 0.0039316 0.11982 0.091627 -0.10678 -0.07286 0.22752 0.17466 0.29611 -0.04488 -0.2181 0.034612 0.18332 -0.33203 -0.066593 -0.05798 0.40771 0.11767 -0.071522 -0.25182 -0.27242 0.081153 0.42386 0.15303 -0.14112 -0.16856 -0.13178 0.21738 -0.19766 0.074882 0.26644 -0.18623 0.10049 -0.24112 0.071475 0.055448 -0.17395 0.10654 0.093118 0.27684 0.10604 -0.12689 0.33358 -0.45653 -0.0075216 
Freedom -0.33744 -0.09213 -0.22451 -0.057035 -0.02158 -0.23837 0.28196 0.18242 -0.27587 0.42357 -0.12616 -0.39241 0.022594 0.064377 0.15256 0.17122 0.12916 0.080912 -0.20247 -0.22074 0.00050498 0.30711 -0.027162 0.07343 0.20914 0.18539 -0.097693 0.012346 0.18574 -0.11473 -0.23805 0.057616 0.027876 0.22397 0.0095406 0.34064 0.12139 -0.19949 -0.52045 0.32829 0.22847 -0.41813 -0.099175 0.052207 -0.0039701 -0.53066 -0.0079593 -0.030457 0.046259 0.44167 0.31798 -0.025337 -0.23958 -0.022563 0.089824 0.26369 0.0057957 0.13304 0.097159 -0.11434 -0.077453 0.24353 0.19216 0.31933 -0.055254 -0.23543 0.044428 0.19335 -0.35369 -0.070354 -0.066309 0.43448 0.12663 -0.079725 -0.2743 -0.2937 0.093051 0.45243 0.16802 -0.14825 -0.17988 -0.14056 0.23827 -0.20495 0.080678 0.28118 -0.19678 0.10773 -0.25346 0.073749 0.055445 -0.18772 0.11238 0.099185 0.29708 0.11643 -0.13333 0.35334 -0.48621 -0.010717 
Mountain -0.38349 -0.10033 -0.2679 -0.068346 -0.021699 -0.27189 0.32268 0.21045 -0.31896 0.48612 -0.14739 -0.45993 0.027281 0.083212 0.17553 0.19897 0.15025 0.095969 -0.23502 -0.25865 -0.0023024 0.34593 -0.028514 0.087695 0.23745 0.20449 -0.11889 0.010758 0.21506 -0.13184 -0.27168 0.065338 0.035111 0.25483 0.0086047 0.39405 0.13608 -0.22859 -0.60171 0.38724 0.266 -0.48319 -0.11869 0.054255 -0.0026334 -0.60562 -0.018962 -0.027061 0.044908 0.49849 0.3757 -0.027804 -0.28169 -0.038905 0.10046 0.30031 0.0016662 0.15547 0.11654 -0.1317 -0.094757 0.27627 0.20408 0.36502 -0.063715 -0.28538 0.046604 0.23001 -0.40584 -0.084445 -0.069779 0.5045 0.14129 -0.092944 -0.30434 -0.33909 0.099935 0.52657 0.18439 -0.16866 -0.20472 -0.1653 0.27994 -0.22861 0.095029 0.32481 -0.23313 0.12349 -0.2925 0.081421 0.06787 -0.22025 0.12578 0.11015 0.34843 0.13386 -0.14808 0.40509 -0.56193 -0.0012711 
Senior -0.33802 -0.091543 -0.23792 -0.061094 -0.016898 -0.24399 0.28631 0.18896 -0.28065 0.43377 -0.12718 -0.40684 0.027383 0.065321 0.15536 0.17626 0.1335 0.08881 -0.20768 -0.2264 -0.0047942 0.30717 -0.026381 0.075784 0.2067 0.18607 -0.10434 0.013197 0.19391 -0.12157 -0.24099 0.066918 0.027487 0.22824 0.0053809 0.35184 0.12063 -0.20253 -0.53088 0.34004 0.23391 -0.42113 -0.10539 0.053966 -0.0082086 -0.53719 -0.014993 -0.02309 0.038192 0.44297 0.32402 -0.023322 -0.25379 -0.036382 0.090375 0.26551 -0.00088708 0.13525 0.10554 -0.11813 -0.081323 0.24293 0.19093 0.32426 -0.05459 -0.24357 0.037202 0.20347 -0.35334 -0.071611 -0.068212 0.44113 0.12586 -0.085096 -0.27151 -0.29823 0.090349 0.47428 0.16823 -0.15071 -0.18176 -0.1465 0.24379 -0.20452 0.083883 0.27783 -0.20289 0.11347 -0.25997 0.078433 0.062938 -0.19191 0.11777 0.10025 0.30604 0.11604 -0.12836 0.36809 -0.49498 -0.0076667 
dog -0.3722 -0.10798 -0.24682 -0.063902 -0.038141 -0.27554 0.33807 0.23411 -0.31415 0.47606 -0.15065 -0.46231 0.042661 0.076648 0.17475 0.21066 0.15645 0.087292 -0.24186 -0.26398 -0.016704 0.34118 -0.038127 0.079479 0.22338 0.20592 -0.12593 0.016499 0.2191 -0.1501 -0.26677 0.073308 0.028112 0.2635 0.0058019 0.38202 0.14822 -0.21912 -0.59903 0.38076 0.25102 -0.43453 -0.096424 0.054305 -0.012737 -0.60084 -0.012164 -0.039097 0.036356 0.50008 0.34361 -0.027828 -0.29824 -0.029463 0.10425 0.29611 -0.0011683 0.16146 0.12812 -0.15019 -0.084984 0.28431 0.21554 0.36324 -0.067109 -0.26049 0.039841 0.22153 -0.38022 -0.089963 -0.08668 0.47794 0.15117 -0.085093 -0.3022 -0.32153 0.088169 0.51961 0.17238 -0.16413 -0.19923 -0.15577 0.2583 -0.22458 0.1059 0.29923 -0.23051 0.13857 -0.28756 0.094408 0.064854 -0.21083 0.13469 0.12114 0.35856 0.1216 -0.14905 0.41462 -0.54861 -0.014878 
Salmon -0.37579 -0.093431 -0.25093 -0.065146 -0.020159 -0.26509 0.30038 0.19331 -0.31087 0.48515 -0.13099 -0.42853 0.031197 0.074203 0.17366 0.18439 0.14582 0.088541 -0.22252 -0.24577 0.0049166 0.33638 -0.027034 0.087509 0.23433 0.19155 -0.10975 0.01127 0.20387 -0.12176 -0.27472 0.069526 0.033172 0.24944 0.015082 0.3797 0.12763 -0.22273 -0.57594 0.3642 0.25897 -0.47195 -0.12214 0.047469 -0.0035702 -0.59285 -0.0060019 -0.035314 0.054467 0.48715 0.36302 -0.0304 -0.26478 -0.023792 0.10076 0.3025 0.0068249 0.13742 0.1073 -0.1191 -0.085209 0.26745 0.20792 0.3581 -0.064457 -0.27024 0.049697 0.21972 -0.3965 -0.081534 -0.068576 0.48759 0.13575 -0.096138 -0.30007 -0.3282 0.099303 0.50271 0.18294 -0.16779 -0.20208 -0.1551 0.27535 -0.23086 0.085035 0.32188 -0.22794 0.10994 -0.28027 0.073146 0.06112 -0.20888 0.12395 0.10531 0.33352 0.13542 -0.15264 0.38954 -0.54297 -0.0063458 
kg. -0.34366 -0.10632 -0.23848 -0.057524 -0.038036 -0.26418 0.32624 0.22753 -0.29314 0.44744 -0.1463 -0.4466 0.033237 0.076372 0.15364 0.20509 0.13532 0.080576 -0.23108 -0.24833 -0.013209 0.31219 -0.029786 0.075097 0.20497 0.19405 -0.12688 0.0031651 0.2153 -0.14893 -0.24396 0.062431 0.031726 0.24764 -0.004475 0.35775 0.14667 -0.20493 -0.57123 0.36845 0.24436 -0.40198 -0.10094 0.047268 -0.0086563 -0.55524 -0.029131 -0.033423 0.032282 0.45438 0.32962 -0.027757 -0.28355 -0.054124 0.087757 0.27365 -0.0099425 0.15724 0.11313 -0.14542 -0.086399 0.26112 0.18934 0.33957 -0.055292 -0.25876 0.029096 0.20987 -0.3582 -0.074291 -0.086411 0.45389 0.14618 -0.07367 -0.27529 -0.30682 0.071654 0.48414 0.1634 -0.1607 -0.18208 -0.14113 0.23667 -0.20908 0.10743 0.2733 -0.21144 0.1394 -0.27354 0.099396 0.062495 -0.19934 0.10745 0.10492 0.33154 0.10723 -0.12133 0.38932 -0.51356 0.00095984 
Junior. -0.35783 -0.093185 -0.2394 -0.069574 -0.020374 -0.25119 0.30697 0.20297 -0.30011 0.45496 -0.13973 -0.42913 0.041382 0.072416 0.16148 0.18899 0.14125 0.085736 -0.22308 -0.2441 -0.0060423 0.31481 -0.029176 0.078094 0.21861 0.19176 -0.11037 0.0095039 0.20339 -0.134 -0.25152 0.068632 0.035217 0.24479 0.0094088 0.36882 0.13425 -0.20117 -0.56415 0.35667 0.23881 -0.42674 -0.10812 0.048187 -0.0084793 -0.5662 -0.016312 -0.030329 0.04169 0.46221 0.33904 -0.027961 -0.27534 -0.031178 0.09619 0.28114 -0.0044255 0.14624 0.11324 -0.1279 -0.08815 0.25544 0.19886 0.34059 -0.056043 -0.26164 0.031903 0.21494 -0.36883 -0.084238 -0.073813 0.45366 0.13049 -0.084959 -0.28778 -0.30817 0.080872 0.48408 0.16467 -0.16073 -0.18787 -0.14807 0.24698 -0.21881 0.097124 0.29 -0.22032 0.12267 -0.27599 0.078025 0.061353 -0.20348 0.11985 0.10535 0.33241 0.12034 -0.13528 0.38662 -0.51854 -0.013237 
science -0.35437 -0.098553 -0.24095 -0.064429 -0.022519 -0.2495 0.29544 0.2047 -0.29449 0.44586 -0.13622 -0.42594 0.026366 0.07561 0.16351 0.19039 0.13876 0.081746 -0.21819 -0.24528 -0.0020232 0.31505 -0.027459 0.078394 0.21598 0.1903 -0.11243 0.0089618 0.20387 -0.13134 -0.24929 0.060428 0.03275 0.24595 0.0041297 0.35991 0.13068 -0.21176 -0.5578 0.3551 0.23981 -0.42985 -0.11045 0.046446 -0.00023821 -0.56232 -0.016094 -0.032494 0.042053 0.45426 0.34021 -0.028852 -0.26203 -0.039836 0.08881 0.2741 0.0022421 0.14221 0.10422 -0.12218 -0.0901 0.26037 0.1895 0.33608 -0.052424 -0.25874 0.038327 0.20852 -0.36769 -0.076456 -0.069385 0.45622 0.13291 -0.079203 -0.2776 -0.31313 0.078695 0.47816 0.17303 -0.15816 -0.18811 -0.14674 0.25266 -0.20672 0.090391 0.29103 -0.21162 0.11675 -0.26736 0.079651 0.056082 -0.20407 0.1115 0.10278 0.32917 0.11685 -0.13718 0.37274 -0.51205 -0.0034405 
diet -0.38172 -0.10161 -0.26586 -0.075954 -0.017736 -0.27726 0.34572 0.23368 -0.32271 0.49425 -0.15295 -0.4836 0.039534 0.077131 0.17464 0.21432 0.15547 0.091463 -0.24679 -0.27935 -0.0014763 0.3332 -0.029473 0.076346 0.23391 0.21186 -0.12841 0.0026263 0.22888 -0.14966 -0.27663 0.070412 0.047266 0.27122 0.011594 0.39643 0.14849 -0.21998 -0.62258 0.39787 0.25491 -0.45172 -0.11602 0.039233 -0.0032493 -0.62129 -0.037146 -0.033561 0.040537 0.49965 0.37695 -0.031042 -0.30674 -0.046894 0.098252 0.31115 -0.017636 0.16413 0.1156 -0.13719 -0.10597 0.285 0.21013 0.37405 -0.0444 -0.29491 0.030073 0.22671 -0.40305 -0.085516 -0.085182 0.50318 0.1445 -0.080392 -0.29527 -0.33751 0.073301 0.52394 0.17136 -0.1828 -0.20334 -0.15624 0.27317 -0.24119 0.10969 0.31648 -0.24922 0.15336 -0.29868 0.093387 0.067892 -0.23017 0.11727 0.1169 0.37207 0.12595 -0.13529 0.41968 -0.57169 -0.011213 
adult -0.39335 -0.1085 -0.26643 -0.069447 -0.033017 -0.27532 0.34847 0.23869 -0.33017 0.49458 -0.16273 -0.49165 0.034733 0.083336 0.17624 0.22222 0.16153 0.09419 -0.25035 -0.28393 -0.011236 0.34866 -0.026338 0.082388 0.23235 0.20968 -0.13574 0.0096914 0.22804 -0.1568 -0.2689 0.076536 0.043665 0.27312 0.0041257 0.40147 0.14955 -0.2239 -0.63249 0.40604 0.25999 -0.45761 -0.11563 0.05004 -0.00431 -0.62263 -0.027489 -0.038304 0.038462 0.49864 0.37856 -0.028488 -0.3077 -0.048371 0.09836 0.3071 -0.012436 0.16455 0.11477 -0.15151 -0.096014 0.28663 0.21064 0.36937 -0.050508 -0.2886 0.03134 0.2365 -0.40247 -0.0823 -0.080761 0.50203 0.15247 -0.083031 -0.30724 -0.34064 0.077097 0.53747 0.1745 -0.18166 -0.20443 -0.15916 0.27197 -0.23411 0.11435 0.31791 -0.24167 0.14653 -0.30523 0.086728 0.0712 -0.22762 0.127 0.11703 0.37528 0.12052 -0.14224 0.42026 -0.57121 -0.0023421 
Beef -0.36985 -0.10201 -0.26275 -0.060867 -0.02267 -0.26425 0.32132 0.21367 -0.31074 0.489 -0.14018 -0.45705 0.040072 0.077138 0.17205 0.18951 0.15232 0.095041 -0.22485 -0.25207 -0.00021997 0.33566 -0.022185 0.091858 0.23234 0.20059 -0.11828 0.011539 0.21917 -0.13806 -0.27112 0.068431 0.038728 0.2557 0.012519 0.38241 0.131 -0.21798 -0.58528 0.37567 0.25678 -0.47576 -0.1222 0.044855 -0.0065611 -0.59358 -0.019599 -0.021915 0.038884 0.48253 0.37209 -0.029095 -0.28552 -0.033972 0.095609 0.3045 -0.0031307 0.15379 0.11219 -0.12744 -0.091684 0.26965 0.20345 0.36121 -0.059205 -0.28764 0.039319 0.22108 -0.39185 -0.08228 -0.076804 0.48947 0.13022 -0.088313 -0.29232 -0.32979 0.088294 0.51043 0.17634 -0.17152 -0.19813 -0.15384 0.27942 -0.2324 0.10443 0.31461 -0.23841 0.12271 -0.28068 0.08066 0.062363 -0.21659 0.11299 0.099879 0.34906 0.14017 -0.14134 0.39571 -0.54899 -0.0050326 
Chicken. -0.3688 -0.10526 -0.24863 -0.064707 -0.022727 -0.2575 0.31371 0.21521 -0.30886 0.45786 -0.14029 -0.44867 0.020418 0.072409 0.15964 0.20752 0.1442 0.091328 -0.22605 -0.25666 -0.0066503 0.33428 -0.031372 0.079658 0.22575 0.20575 -0.11892 0.0083907 0.21306 -0.13477 -0.25583 0.076595 0.038389 0.25443 0.001624 0.3788 0.13469 -0.21572 -0.58302 0.37227 0.24361 -0.44513 -0.10858 0.058129 -0.00061435 -0.57894 -0.019445 -0.031608 0.050515 0.47342 0.35 -0.022143 -0.2787 -0.039731 0.098538 0.28372 -0.0075139 0.1567 0.10636 -0.13319 -0.088122 0.26851 0.20754 0.34344 -0.052825 -0.26178 0.044729 0.21694 -0.38202 -0.074897 -0.073297 0.47667 0.14553 -0.081626 -0.29375 -0.3176 0.08542 0.50388 0.17392 -0.16935 -0.18989 -0.15823 0.25679 -0.21886 0.10655 0.30035 -0.21878 0.13602 -0.2837 0.083778 0.062224 -0.21371 0.1172 0.10999 0.34085 0.12074 -0.13383 0.39811 -0.54161 0.0010214 
7+ -0.30856 -0.087792 -0.20901 -0.051929 -0.010725 -0.22989 0.26812 0.17319 -0.25082 0.4051 -0.1151 -0.377 0.018351 0.05626 0.14676 0.15556 0.11679 0.080272 -0.20134 -0.21487 0.0030435 0.27903 -0.02507 0.08316 0.2082 0.16792 -0.094205 0.019912 0.17248 -0.10987 -0.22147 0.049949 0.027069 0.21756 0.006503 0.32382 0.11293 -0.18771 -0.48551 0.30501 0.21223 -0.39326 -0.098424 0.047636 -0.0023524 -0.49692 -0.0089331 -0.028467 0.036951 0.41728 0.30383 -0.019869 -0.22695 -0.023891 0.082427 0.24972 -0.0010334 0.11431 0.093254 -0.097957 -0.084307 0.22342 0.17636 0.30517 -0.047505 -0.22518 0.034274 0.19412 -0.33585 -0.0766 -0.059471 0.41067 0.11047 -0.064869 -0.25112 -0.26813 0.082426 0.42837 0.14916 -0.14369 -0.1743 -0.12589 0.22111 -0.19748 0.065185 0.2681 -0.18812 0.10348 -0.23014 0.076193 0.042766 -0.17266 0.10382 0.10284 0.29075 0.10939 -0.11801 0.34262 -0.45847 -0.017101 
Care -0.31402 -0.078274 -0.22084 -0.063245 -0.019777 -0.21758 0.27499 0.17783 -0.26713 0.40138 -0.12489 -0.38684 0.03334 0.070028 0.14749 0.16838 0.1271 0.076243 -0.1996 -0.22751 -0.0014167 0.27303 -0.017608 0.062247 0.19159 0.17413 -0.1016 0.006643 0.18963 -0.11959 -0.22509 0.053532 0.042781 0.22046 0.011737 0.32091 0.12182 -0.17913 -0.50684 0.31885 0.21686 -0.38266 -0.097331 0.036217 0.0016231 -0.50282 -0.0208 -0.025767 0.027475 0.40126 0.30739 -0.025844 -0.24109 -0.031846 0.075826 0.24441 -0.0056948 0.13079 0.097098 -0.10788 -0.080764 0.22942 0.17056 0.30134 -0.035128 -0.24263 0.022144 0.18773 -0.32815 -0.066649 -0.069095 0.40711 0.11095 -0.070342 -0.24349 -0.28081 0.061362 0.42481 0.14925 -0.13845 -0.1692 -0.12571 0.2273 -0.1949 0.088754 0.25336 -0.20171 0.10668 -0.24377 0.074696 0.049418 -0.18154 0.10056 0.084082 0.29785 0.10427 -0.11914 0.33625 -0.45938 -0.0096095 
Maxi -0.3136 -0.091024 -0.2249 -0.064464 -0.020637 -0.22787 0.28112 0.18789 -0.26656 0.4193 -0.12166 -0.39334 0.035145 0.069323 0.14488 0.16884 0.12704 0.074912 -0.207 -0.22735 -0.002103 0.27291 -0.01662 0.069743 0.19726 0.17347 -0.1092 0.012162 0.1931 -0.11989 -0.23295 0.05801 0.037694 0.21992 0.01293 0.33217 0.11831 -0.17179 -0.51584 0.32897 0.21485 -0.38435 -0.09772 0.036565 -0.0035852 -0.51126 -0.026373 -0.025178 0.034114 0.40455 0.31662 -0.020409 -0.24873 -0.031362 0.078085 0.25546 -0.013986 0.12998 0.10187 -0.11498 -0.076486 0.22843 0.17184 0.2997 -0.043393 -0.24601 0.021929 0.19612 -0.33532 -0.077806 -0.067744 0.41662 0.11623 -0.073108 -0.25336 -0.28201 0.065292 0.43313 0.14767 -0.14799 -0.16991 -0.13117 0.22708 -0.19453 0.089251 0.26091 -0.20623 0.11556 -0.25083 0.07087 0.059828 -0.18703 0.09615 0.091944 0.30548 0.1043 -0.11633 0.34495 -0.46436 -0.0061573 
Mature -0.32848 -0.089838 -0.21676 -0.064292 -0.013895 -0.21955 0.27415 0.1813 -0.2738 0.40589 -0.12561 -0.39199 0.027406 0.065715 0.14775 0.1718 0.12694 0.078926 -0.20505 -0.22596 -0.0032155 0.28392 -0.022499 0.071492 0.20379 0.17808 -0.10492 0.012048 0.18678 -0.12106 -0.22846 0.062113 0.039541 0.22429 0.0070397 0.33684 0.12597 -0.18336 -0.51849 0.32507 0.21649 -0.39547 -0.10314 0.047591 0.0066435 -0.51327 -0.019846 -0.030433 0.042176 0.41747 0.31366 -0.022318 -0.24153 -0.025378 0.086135 0.25212 -0.0084624 0.13145 0.090761 -0.10673 -0.08545 0.23262 0.18104 0.3097 -0.040475 -0.23988 0.027689 0.19285 -0.34416 -0.071859 -0.063053 0.41775 0.11766 -0.072808 -0.2595 -0.28196 0.068679 0.43877 0.15758 -0.1495 -0.17698 -0.13627 0.2294 -0.19704 0.08896 0.27041 -0.19793 0.11427 -0.24623 0.069989 0.049161 -0.18793 0.10366 0.097594 0.30164 0.10374 -0.12092 0.34876 -0.47704 -0.010272 
Stew -0.3593 -0.10162 -0.2497 -0.059583 -0.028014 -0.25979 0.30357 0.19454 -0.30051 0.46703 -0.14051 -0.42828 0.022958 0.072627 0.17425 0.18146 0.14871 0.09129 -0.22406 -0.23319 -0.0035678 0.33237 -0.026224 0.083597 0.2196 0.19637 -0.11329 0.020326 0.20058 -0.13179 -0.25586 0.067497 0.028741 0.24347 0.011848 0.36801 0.13196 -0.21278 -0.56324 0.36248 0.25142 -0.45297 -0.10861 0.052622 -0.0083221 -0.57115 -0.0046234 -0.025034 0.041656 0.47996 0.35022 -0.029941 -0.26538 -0.033814 0.10065 0.28385 0.011585 0.13911 0.109 -0.12478 -0.083475 0.25917 0.21068 0.34797 -0.067232 -0.25736 0.05502 0.21756 -0.3811 -0.081194 -0.070887 0.46568 0.13596 -0.08055 -0.29388 -0.31766 0.095577 0.50751 0.17753 -0.15972 -0.19096 -0.15409 0.26303 -0.21504 0.087581 0.30418 -0.21189 0.11033 -0.26501 0.077377 0.05695 -0.19735 0.12505 0.10666 0.32356 0.13115 -0.14221 0.38274 -0.52818 -0.0033463 
High -0.35856 -0.089225 -0.23835 -0.068515 -0.015818 -0.24525 0.27698 0.18423 -0.30316 0.44185 -0.13261 -0.41232 0.026923 0.072503 0.16045 0.17519 0.13596 0.084526 -0.21358 -0.2336 0.0055793 0.31478 -0.020622 0.084174 0.22566 0.19588 -0.10685 0.012058 0.19905 -0.12084 -0.25172 0.065192 0.033739 0.2421 0.009657 0.36433 0.12614 -0.19981 -0.55623 0.34493 0.2436 -0.44864 -0.11451 0.054268 0.0060915 -0.5571 -0.0096494 -0.035955 0.046645 0.45572 0.34409 -0.026868 -0.24732 -0.01985 0.092024 0.28096 0.0014784 0.13194 0.094344 -0.11158 -0.088697 0.2547 0.19549 0.33511 -0.052428 -0.25907 0.034667 0.21149 -0.3774 -0.072194 -0.059753 0.45691 0.12618 -0.088523 -0.28536 -0.31374 0.088047 0.47696 0.18258 -0.15956 -0.19435 -0.1519 0.25267 -0.21337 0.082326 0.30074 -0.20869 0.10015 -0.26807 0.061324 0.053044 -0.19921 0.11691 0.094856 0.32246 0.11488 -0.14356 0.36616 -0.51378 -0.0045939 
hills -0.34755 -0.096132 -0.23667 -0.061613 -0.01782 -0.24387 0.28909 0.19895 -0.28771 0.42842 -0.12964 -0.41911 0.018961 0.07129 0.152 0.18444 0.13951 0.082384 -0.21204 -0.23884 -0.0062711 0.30412 -0.026445 0.073114 0.21258 0.18129 -0.1172 0.0026737 0.19571 -0.12214 -0.24123 0.066955 0.033683 0.23592 -0.0031894 0.35173 0.12461 -0.19534 -0.55281 0.35162 0.23336 -0.42351 -0.10686 0.051547 0.0016612 -0.54374 -0.021826 -0.03781 0.047822 0.44126 0.33533 -0.021835 -0.25672 -0.029021 0.088154 0.26782 -0.01208 0.14375 0.093079 -0.11989 -0.0833 0.25028 0.18778 0.32037 -0.051787 -0.24701 0.041198 0.20199 -0.35416 -0.070889 -0.063192 0.45119 0.13012 -0.079921 -0.27505 -0.30499 0.082487 0.46784 0.17166 -0.1606 -0.18365 -0.14893 0.24519 -0.20307 0.089372 0.28862 -0.20194 0.12043 -0.26661 0.069327 0.059789 -0.20007 0.10757 0.10345 0.3238 0.10947 -0.12526 0.37118 -0.50713 -0.00050843 
Fish -0.34299 -0.090096 -0.23076 -0.062899 -0.028932 -0.23494 0.29131 0.19772 -0.28898 0.43492 -0.13521 -0.41153 0.03426 0.075362 0.15711 0.17388 0.13621 0.077792 -0.21609 -0.23071 -0.0014575 0.2975 -0.023614 0.080217 0.21011 0.18385 -0.11003 0.011224 0.19515 -0.13093 -0.23875 0.059623 0.0313 0.23945 0.0072582 0.35157 0.12868 -0.18686 -0.54183 0.3383 0.23 -0.41376 -0.10308 0.04553 -0.0066287 -0.54053 -0.014528 -0.031691 0.039371 0.44517 0.3258 -0.030233 -0.26635 -0.017803 0.087907 0.27262 -0.0036222 0.13727 0.10783 -0.11662 -0.088763 0.24826 0.1882 0.32356 -0.058759 -0.2542 0.025176 0.2031 -0.35861 -0.081787 -0.068809 0.43602 0.12417 -0.079353 -0.27579 -0.29906 0.080382 0.45831 0.1573 -0.15853 -0.18108 -0.13849 0.23776 -0.20509 0.095912 0.28382 -0.21474 0.11057 -0.26071 0.071292 0.052202 -0.19316 0.11358 0.098479 0.32808 0.12298 -0.12748 0.36376 -0.50125 -0.013678 
Size -0.34447 -0.099979 -0.24179 -0.061542 -0.015175 -0.24698 0.28505 0.19648 -0.28763 0.43865 -0.13213 -0.41923 0.021851 0.081591 0.16126 0.17823 0.13143 0.086039 -0.22087 -0.22986 -0.0050976 0.31296 -0.026956 0.082412 0.21853 0.18069 -0.11351 0.01155 0.19829 -0.12502 -0.2406 0.056852 0.023149 0.22773 -0.002501 0.35383 0.12727 -0.21455 -0.53849 0.35303 0.23962 -0.43755 -0.10937 0.054999 -0.0017452 -0.55095 -0.0096253 -0.023949 0.040373 0.45313 0.33651 -0.021758 -0.25055 -0.034584 0.092058 0.26885 0.010532 0.13883 0.1085 -0.11893 -0.087432 0.253 0.17964 0.33441 -0.060032 -0.25549 0.048406 0.20692 -0.36727 -0.078296 -0.058515 0.45474 0.12908 -0.079515 -0.27368 -0.31059 0.088269 0.47449 0.17287 -0.15015 -0.18668 -0.14993 0.24598 -0.20286 0.082465 0.29224 -0.20245 0.10449 -0.25778 0.077101 0.060306 -0.19764 0.11427 0.10293 0.31332 0.11348 -0.14641 0.36864 -0.50208 0.0035355 
canine -0.36791 -0.094013 -0.25372 -0.06927 -0.025954 -0.26344 0.32238 0.21707 -0.30788 0.48285 -0.1436 -0.45434 0.036288 0.075799 0.16883 0.1935 0.15221 0.093028 -0.23549 -0.25939 -0.00025418 0.33101 -0.02571 0.082037 0.22675 0.19521 -0.12156 0.009559 0.2118 -0.13358 -0.27044 0.067915 0.03757 0.25666 0.0038673 0.38134 0.13167 -0.21455 -0.58821 0.37899 0.24914 -0.45216 -0.11535 0.044187 -0.0051966 -0.59499 -0.023864 -0.029912 0.036678 0.48279 0.36547 -0.027541 -0.28971 -0.034489 0.094158 0.30023 -0.0066556 0.14784 0.10988 -0.12963 -0.096631 0.27132 0.2035 0.35505 -0.055541 -0.27977 0.036027 0.22259 -0.38518 -0.078209 -0.079773 0.48367 0.13911 -0.084246 -0.28956 -0.328 0.088264 0.50769 0.17211 -0.173 -0.19581 -0.15354 0.26872 -0.23125 0.096748 0.31191 -0.2334 0.13001 -0.27929 0.083186 0.066558 -0.21397 0.11844 0.10768 0.34921 0.12754 -0.14086 0.3992 -0.54751 -0.009066 
food -0.37739 -0.10558 -0.25251 -0.068447 -0.020693 -0.27182 0.32152 0.22459 -0.31254 0.4686 -0.14903 -0.45788 0.024486 0.083069 0.16184 0.20381 0.14468 0.087013 -0.23099 -0.2625 -0.0066247 0.33097 -0.027577 0.086731 0.22726 0.20596 -0.1207 0.00046546 0.21831 -0.13061 -0.26673 0.07317 0.039755 0.26087 0.0086072 0.39115 0.13712 -0.21446 -0.59231 0.38276 0.25063 -0.45149 -0.11292 0.058648 -0.0082054 -0.58973 -0.022186 -0.032413 0.049229 0.48232 0.35928 -0.023127 -0.29243 -0.042548 0.10169 0.29323 -0.012344 0.15741 0.11555 -0.1405 -0.086946 0.27363 0.20644 0.3546 -0.060073 -0.26859 0.047604 0.22123 -0.38193 -0.084139 -0.075201 0.49809 0.14679 -0.090345 -0.29383 -0.32871 0.090671 0.51861 0.16938 -0.16865 -0.18942 -0.15915 0.26121 -0.21907 0.10791 0.30418 -0.2259 0.14192 -0.29065 0.086872 0.064563 -0.22231 0.11809 0.11597 0.35559 0.12354 -0.13508 0.40794 -0.54905 -0.00099969 
Dinner -0.34292 -0.089464 -0.23333 -0.062942 -0.015983 -0.2373 0.27642 0.17534 -0.28146 0.42752 -0.12908 -0.39581 0.018189 0.065654 0.15214 0.16941 0.13825 0.078814 -0.20241 -0.21649 -0.0009114 0.30282 -0.022925 0.075654 0.20964 0.18707 -0.10253 0.016847 0.18902 -0.11201 -0.23447 0.064548 0.03078 0.22759 0.01574 0.35341 0.11918 -0.19759 -0.53158 0.3356 0.22873 -0.43293 -0.10394 0.050778 -0.0038288 -0.53911 -0.011606 -0.023769 0.047479 0.43893 0.33108 -0.017444 -0.23817 -0.029971 0.090582 0.26494 0.0051688 0.12903 0.092068 -0.10776 -0.080232 0.24363 0.19062 0.31571 -0.053471 -0.24397 0.0422 0.19818 -0.36109 -0.070426 -0.058285 0.44551 0.12513 -0.082742 -0.26873 -0.30182 0.09235 0.46668 0.1645 -0.15354 -0.17906 -0.14842 0.2449 -0.19894 0.082106 0.28828 -0.1989 0.10363 -0.25439 0.067555 0.051874 -0.19425 0.10724 0.095416 0.30359 0.12291 -0.13151 0.3562 -0.49441 0.0036288 
Retriever -0.35173 -0.098156 -0.23833 -0.059426 -0.021008 -0.25763 0.30308 0.20284 -0.28716 0.44896 -0.13731 -0.42733 0.028528 0.072868 0.15805 0.18989 0.13752 0.088228 -0.22352 -0.24062 -0.013402 0.31661 -0.030491 0.076818 0.2136 0.18668 -0.11178 0.0078097 0.20081 -0.134 -0.24521 0.065851 0.031053 0.23434 0.0031565 0.36036 0.1321 -0.20895 -0.55423 0.35627 0.24309 -0.42279 -0.10667 0.054445 -0.0047861 -0.55777 -0.013566 -0.032263 0.041339 0.46105 0.33202 -0.021889 -0.2675 -0.040201 0.097271 0.27783 0.0022249 0.14224 0.10588 -0.12935 -0.08681 0.25823 0.19261 0.33738 -0.054438 -0.25107 0.045664 0.21125 -0.36512 -0.072684 -0.06923 0.4596 0.13727 -0.07765 -0.28072 -0.30764 0.085854 0.48535 0.16863 -0.16007 -0.18739 -0.14775 0.24833 -0.20979 0.092877 0.28873 -0.21308 0.1224 -0.26765 0.085204 0.066866 -0.20115 0.11812 0.10684 0.32256 0.11839 -0.1366 0.3849 -0.51728 -0.003569 
Treats. -0.37324 -0.10134 -0.24936 -0.071362 -0.021783 -0.25882 0.31328 0.21233 -0.30589 0.46931 -0.1451 -0.4385 0.030763 0.075661 0.17237 0.1947 0.14471 0.08513 -0.2326 -0.25623 -0.0057569 0.32722 -0.026112 0.086504 0.23094 0.19323 -0.11182 0.013198 0.21136 -0.12691 -0.26491 0.068235 0.037202 0.25873 0.01111 0.38412 0.13413 -0.21777 -0.58136 0.36747 0.24449 -0.45448 -0.11769 0.051648 -0.0070887 -0.59658 -0.0070935 -0.035631 0.049246 0.47913 0.35982 -0.026165 -0.28135 -0.02636 0.10006 0.2924 0.0034634 0.15035 0.11746 -0.12902 -0.088914 0.27276 0.20627 0.35162 -0.062191 -0.27163 0.040894 0.21878 -0.38911 -0.091492 -0.072297 0.4807 0.13259 -0.086876 -0.30017 -0.32975 0.088862 0.50164 0.17285 -0.16227 -0.1964 -0.15574 0.2629 -0.22157 0.093066 0.30948 -0.22657 0.12588 -0.28491 0.085572 0.063713 -0.21578 0.12376 0.11107 0.34723 0.12915 -0.14292 0.39304 -0.54328 -0.016137 
Venison -0.36641 -0.092032 -0.2426 -0.067671 -0.024559 -0.25128 0.28189 0.18303 -0.30608 0.45629 -0.13124 -0.41709 0.024446 0.076624 0.16866 0.17907 0.14007 0.083407 -0.21378 -0.23324 0.0077756 0.32204 -0.022901 0.080355 0.22956 0.18989 -0.10818 0.016485 0.19226 -0.11555 -0.25374 0.059274 0.030924 0.24037 0.015937 0.36768 0.12599 -0.20161 -0.56807 0.35828 0.25078 -0.46004 -0.10899 0.049751 0.0075251 -0.56323 -0.003257 -0.035057 0.054387 0.46369 0.35419 -0.029062 -0.24854 -0.014739 0.094207 0.28273 0.0046077 0.13197 0.093296 -0.11297 -0.083343 0.25304 0.19911 0.33434 -0.060399 -0.25984 0.040874 0.21237 -0.38814 -0.079145 -0.054683 0.46183 0.12933 -0.083532 -0.29492 -0.3171 0.092551 0.48151 0.18318 -0.1629 -0.19564 -0.15095 0.26079 -0.2155 0.081438 0.31251 -0.21469 0.094294 -0.26898 0.057353 0.049205 -0.20114 0.11698 0.10104 0.32472 0.12428 -0.14611 0.37317 -0.51727 -0.00073356 
12 -0.37191 -0.11378 -0.27087 -0.071578 -0.035874 -0.26592 0.34795 0.24585 -0.32165 0.49224 -0.16937 -0.49723 0.04936 0.094281 0.17984 0.21352 0.16542 0.09838 -0.25459 -0.27717 -0.017429 0.33823 -0.026974 0.087262 0.22851 0.18722 -0.14475 0.0061251 0.24275 -0.16075 -0.26911 0.080521 0.03623 0.26645 0.00075436 0.39475 0.15366 -0.22827 -0.61865 0.41195 0.25562 -0.44547 -0.12092 0.036282 -0.0092172 -0.61271 -0.020273 -0.019172 0.037213 0.49413 0.37021 -0.018696 -0.32459 -0.063135 0.10049 0.30188 -0.01119 0.17546 0.13459 -0.15302 -0.094218 0.28796 0.20349 0.36607 -0.06048 -0.30345 0.033252 0.23849 -0.3858 -0.09816 -0.086055 0.49606 0.14664 -0.081792 -0.30138 -0.33101 0.068243 0.54361 0.16905 -0.17022 -0.19688 -0.16558 0.27958 -0.22583 0.1192 0.30013 -0.24566 0.14641 -0.30025 0.095797 0.072536 -0.22485 0.12001 0.10667 0.37203 0.13301 -0.13455 0.43115 -0.56889 0.0045434 
Treats -0.36129 -0.095595 -0.24541 -0.068859 -0.021806 -0.25923 0.31281 0.20921 -0.2989 0.46757 -0.1456 -0.43306 0.032957 0.074455 0.16841 0.19282 0.14273 0.083241 -0.2314 -0.2532 -0.004847 0.31637 -0.028188 0.085252 0.22403 0.18964 -0.10877 0.011246 0.20902 -0.12483 -0.26266 0.068609 0.041105 0.25559 0.013222 0.37598 0.13266 -0.21482 -0.56821 0.36136 0.24133 -0.44089 -0.11425 0.043943 -0.011769 -0.58862 -0.0078532 -0.03337 0.045522 0.47496 0.35523 -0.027914 -0.27779 -0.030553 0.10069 0.29017 0.0025688 0.14932 0.12038 -0.12909 -0.087882 0.26856 0.20149 0.34668 -0.060595 -0.27166 0.039524 0.21621 -0.37697 -0.089368 -0.076307 0.4737 0.1294 -0.091134 -0.29433 -0.32449 0.085409 0.49414 0.16649 -0.16203 -0.18901 -0.15178 0.25761 -0.22246 0.092441 0.30522 -0.22501 0.12935 -0.27907 0.086883 0.063666 -0.21282 0.11911 0.10563 0.34045 0.13028 -0.1379 0.38687 -0.5352 -0.017365 
Ultra -0.33004 -0.089563 -0.21678 -0.051124 -0.01268 -0.23539 0.26932 0.17085 -0.26136 0.40485 -0.12116 -0.37464 0.018034 0.059196 0.15239 0.16415 0.12439 0.085 -0.20159 -0.20877 0.0028143 0.29357 -0.025376 0.075148 0.21181 0.17882 -0.094163 0.018505 0.1809 -0.10857 -0.22584 0.061866 0.023618 0.21249 0.013596 0.33067 0.11998 -0.20375 -0.50167 0.31305 0.22833 -0.40393 -0.095884 0.055646 5.5062e-05 -0.51128 -0.0013024 -0.033296 0.044181 0.43275 0.30361 -0.021905 -0.22542 -0.021315 0.094506 0.25658 0.0076075 0.12709 0.086748 -0.10882 -0.086413 0.2346 0.18196 0.31175 -0.054765 -0.22921 0.04325 0.18674 -0.35405 -0.068687 -0.061195 0.42086 0.11631 -0.072953 -0.26589 -0.28097 0.091149 0.43487 0.16451 -0.14374 -0.17911 -0.13925 0.2283 -0.19892 0.065193 0.27209 -0.18907 0.10073 -0.24444 0.068495 0.058774 -0.17826 0.1182 0.095449 0.28023 0.10551 -0.13556 0.34509 -0.46914 -0.012061 
Toy -0.34971 -0.081923 -0.24822 -0.059557 -0.016898 -0.24731 0.27859 0.18228 -0.30109 0.44957 -0.13168 -0.41668 0.020069 0.069913 0.15259 0.17859 0.1322 0.094614 -0.21613 -0.21339 -0.008057 0.32061 -0.024709 0.089759 0.21418 0.18996 -0.10201 0.011546 0.19912 -0.12074 -0.24278 0.07007 0.017847 0.22898 0.00055566 0.35758 0.12084 -0.2056 -0.53875 0.3432 0.24806 -0.45418 -0.11756 0.059289 -0.0068659 -0.54239 -0.0089305 -0.019564 0.045158 0.45253 0.33724 -0.014936 -0.25559 -0.034657 0.095263 0.27169 0.0068241 0.13496 0.10703 -0.11805 -0.066701 0.24648 0.18727 0.33011 -0.064287 -0.24845 0.049528 0.22077 -0.36642 -0.071311 -0.051476 0.46538 0.13708 -0.092615 -0.27663 -0.30393 0.09919 0.50055 0.17003 -0.15154 -0.18519 -0.15349 0.24933 -0.2046 0.09206 0.29304 -0.20902 0.093387 -0.27135 0.070591 0.057644 -0.19741 0.11929 0.097217 0.31051 0.12266 -0.13757 0.38146 -0.50017 0.012118 
Light -0.32294 -0.083245 -0.2247 -0.058518 -0.012559 -0.22826 0.26326 0.16487 -0.27093 0.41297 -0.11633 -0.37969 0.026355 0.062766 0.14989 0.16252 0.12676 0.080584 -0.19202 -0.21476 -0.0016889 0.2834 -0.019263 0.066554 0.20014 0.17694 -0.096608 0.014099 0.17697 -0.10895 -0.23034 0.052942 0.026066 0.21225 0.011127 0.32661 0.11114 -0.19051 -0.50078 0.31747 0.22661 -0.41447 -0.10005 0.04156 0.00065993 -0.50448 -0.0080208 -0.022252 0.03587 0.41317 0.31564 -0.026079 -0.22784 -0.026532 0.082353 0.25137 0.0034668 0.12536 0.092493 -0.10174 -0.075452 0.22571 0.17587 0.30931 -0.050457 -0.23583 0.037262 0.19084 -0.34056 -0.066674 -0.055886 0.4202 0.11529 -0.077975 -0.25472 -0.28361 0.086417 0.43921 0.15856 -0.13771 -0.17278 -0.13636 0.23281 -0.19378 0.073579 0.27411 -0.19637 0.093202 -0.24387 0.063743 0.051892 -0.18339 0.10571 0.084802 0.28683 0.11146 -0.13581 0.3328 -0.46343 -0.0015324 
Rocky -0.29997 -0.084074 -0.20451 -0.047917 -0.0099585 -0.21518 0.23234 0.16843 -0.24595 0.37358 -0.10413 -0.35032 0.010046 0.059188 0.13293 0.15358 0.1104 0.076203 -0.18249 -0.19547 -0.0088077 0.27467 -0.017923 0.069339 0.1922 0.16658 -0.092723 0.012607 0.16164 -0.10043 -0.20782 0.0518 0.015512 0.20278 -0.0051624 0.30442 0.10394 -0.18946 -0.4661 0.2909 0.21328 -0.37772 -0.096098 0.056816 0.0049947 -0.46869 -0.0058692 -0.030006 0.043608 0.39336 0.2775 -0.01754 -0.20418 -0.026659 0.082482 0.22994 0.010231 0.11272 0.082302 -0.099354 -0.073089 0.22127 0.16282 0.28158 -0.050786 -0.20273 0.044034 0.17829 -0.3146 -0.050399 -0.044822 0.39516 0.11686 -0.070191 -0.23845 -0.26238 0.083973 0.40796 0.16279 -0.13425 -0.16127 -0.13731 0.20981 -0.17451 0.061602 0.25695 -0.16386 0.088638 -0.22559 0.062546 0.048157 -0.17148 0.10367 0.09271 0.25994 0.094149 -0.12714 0.31665 -0.43113 1.98e-05 
Stream -0.37953 -0.095183 -0.27273 -0.07639 -0.016683 -0.26353 0.31772 0.2023 -0.32413 0.51332 -0.13969 -0.453 0.055298 0.082679 0.19002 0.18733 0.15586 0.097588 -0.23422 -0.26324 0.0046548 0.33144 -0.019843 0.099924 0.24051 0.19517 -0.1177 0.014841 0.21637 -0.13255 -0.2872 0.072259 0.040398 0.26516 0.022164 0.39042 0.12889 -0.21636 -0.59842 0.38208 0.26564 -0.49423 -0.13705 0.029857 -0.0082176 -0.61245 -0.0066425 -0.021373 0.042535 0.4897 0.38976 -0.029961 -0.29297 -0.024085 0.10033 0.30964 0.0039994 0.1517 0.12807 -0.11905 -0.092048 0.26385 0.20481 0.36974 -0.062825 -0.30081 0.03581 0.23686 -0.40716 -0.096968 -0.073132 0.49525 0.12453 -0.09836 -0.30379 -0.34006 0.085313 0.52067 0.17489 -0.16924 -0.20298 -0.15247 0.28843 -0.24192 0.10497 0.32816 -0.254 0.11734 -0.29319 0.076445 0.063092 -0.22171 0.11628 0.092647 0.35591 0.15218 -0.15333 0.40391 -0.55581 -0.014191 
Pacific -0.36602 -0.099601 -0.26526 -0.071188 -0.015343 -0.26769 0.3283 0.20666 -0.31418 0.50378 -0.13834 -0.45708 0.045055 0.081714 0.1763 0.19738 0.14923 0.091665 -0.23078 -0.26135 -0.003734 0.32435 -0.020413 0.084402 0.23745 0.19989 -0.11804 0.010615 0.21269 -0.13419 -0.27731 0.063388 0.039046 0.25674 0.016811 0.39244 0.13026 -0.21659 -0.60152 0.3801 0.26259 -0.47604 -0.12275 0.03672 -0.008406 -0.60464 -0.021977 -0.022574 0.040044 0.48481 0.37759 -0.028567 -0.28693 -0.029542 0.097136 0.3074 0.00079769 0.14845 0.1213 -0.12488 -0.087411 0.26539 0.1973 0.36075 -0.062524 -0.29354 0.031827 0.23088 -0.39635 -0.091701 -0.070532 0.49852 0.1319 -0.090871 -0.2994 -0.32986 0.089173 0.50943 0.17238 -0.16698 -0.20225 -0.15782 0.27638 -0.2396 0.10226 0.31882 -0.24248 0.12242 -0.2956 0.082545 0.066465 -0.221 0.11662 0.097914 0.34607 0.13851 -0.14215 0.40006 -0.54925 -0.0082922 
Bulldog -0.37208 -0.10055 -0.24556 -0.065613 -0.027764 -0.267 0.32394 0.21485 -0.30645 0.4712 -0.14626 -0.44497 0.039347 0.074636 0.16652 0.1997 0.14932 0.089961 -0.23159 -0.25588 -0.0092644 0.33209 -0.031971 0.079316 0.22332 0.20008 -0.11691 0.0086418 0.21559 -0.13672 -0.26398 0.071203 0.037088 0.25722 0.0084216 0.37908 0.14173 -0.21567 -0.58365 0.3692 0.25192 -0.43766 -0.10809 0.049116 -0.011702 -0.5875 -0.017326 -0.037003 0.042167 0.48436 0.35447 -0.031392 -0.28952 -0.037077 0.097793 0.29006 -0.0019665 0.15883 0.11439 -0.13701 -0.091978 0.27257 0.20953 0.35303 -0.058871 -0.26912 0.040382 0.21801 -0.3838 -0.082599 -0.082899 0.4778 0.13897 -0.086925 -0.29609 -0.32089 0.087254 0.50426 0.16969 -0.16882 -0.19401 -0.15462 0.25924 -0.2277 0.10008 0.2988 -0.22548 0.13817 -0.28644 0.093056 0.065522 -0.21098 0.1259 0.11108 0.34046 0.12776 -0.13716 0.40317 -0.54614 -0.0099399 
Original -0.31181 -0.089222 -0.20258 -0.049179 -0.015584 -0.22914 0.27175 0.17997 -0.25139 0.39659 -0.11833 -0.36597 0.022182 0.055495 0.14048 0.16773 0.11672 0.080548 -0.19325 -0.2117 -0.0088854 0.28177 -0.026351 0.066451 0.19732 0.17199 -0.094576 0.015393 0.17521 -0.10872 -0.22098 0.064574 0.025562 0.20774 0.0049198 0.32275 0.11887 -0.1919 -0.48879 0.30827 0.21717 -0.36858 -0.089425 0.051012 -0.0071643 -0.49402 -0.011743 -0.031498 0.04336 0.41416 0.28787 -0.021032 -0.23162 -0.031857 0.087453 0.24341 6.9491e-05 0.12498 0.092231 -0.11507 -0.078198 0.23097 0.18326 0.29956 -0.049962 -0.21522 0.045989 0.17947 -0.32817 -0.066027 -0.065968 0.40441 0.12438 -0.071794 -0.2566 -0.26698 0.084607 0.42359 0.14945 -0.14083 -0.17018 -0.13611 0.21643 -0.19059 0.07535 0.25667 -0.18157 0.11951 -0.23982 0.076992 0.060967 -0.175 0.11071 0.10047 0.27486 0.09828 -0.1268 0.34217 -0.45794 -0.011211 
Prairie -0.38682 -0.092025 -0.26912 -0.072468 -0.018771 -0.27072 0.30855 0.19615 -0.32527 0.50385 -0.13905 -0.44611 0.031604 0.085535 0.1886 0.19193 0.15074 0.093818 -0.23642 -0.25619 0.0066229 0.34144 -0.024983 0.094622 0.24213 0.19989 -0.11353 0.015449 0.2089 -0.12679 -0.28361 0.063989 0.038227 0.26216 0.015992 0.39278 0.1282 -0.22508 -0.60025 0.38275 0.26961 -0.50781 -0.13306 0.042443 0.00068425 -0.61175 -0.0085471 -0.029186 0.051457 0.49354 0.38638 -0.031687 -0.27155 -0.026429 0.10373 0.30775 0.0071719 0.14275 0.11795 -0.11654 -0.088954 0.27522 0.2055 0.36317 -0.067782 -0.29151 0.047295 0.23453 -0.41285 -0.09139 -0.05646 0.5037 0.13166 -0.099156 -0.3079 -0.34054 0.097562 0.52427 0.18745 -0.16899 -0.20912 -0.16591 0.29241 -0.23226 0.088296 0.34531 -0.2444 0.10489 -0.29164 0.072796 0.063784 -0.22086 0.11998 0.098022 0.35337 0.14477 -0.15412 0.39211 -0.56129 -0.0036701 
Bison -0.38043 -0.091939 -0.2496 -0.066421 -0.019613 -0.26312 0.28807 0.20096 -0.31235 0.46928 -0.13672 -0.43367 0.020056 0.076154 0.16541 0.19314 0.14132 0.086082 -0.22213 -0.24239 -0.001393 0.3354 -0.027641 0.085786 0.23748 0.19825 -0.10944 0.010522 0.2013 -0.11585 -0.26349 0.067928 0.02733 0.24917 0.0037826 0.38171 0.12444 -0.2157 -0.58062 0.37027 0.25667 -0.46761 -0.11701 0.060018 0.0077059 -0.58526 -0.0030861 -0.041116 0.058008 0.48101 0.36222 -0.028883 -0.26255 -0.019961 0.10259 0.2907 0.0029989 0.13968 0.10201 -0.12282 -0.083243 0.2671 0.20294 0.34571 -0.065014 -0.26247 0.051393 0.22018 -0.39531 -0.077093 -0.055212 0.48226 0.1394 -0.089268 -0.30118 -0.32165 0.099608 0.49792 0.18557 -0.16339 -0.19746 -0.16028 0.26383 -0.22125 0.083591 0.32399 -0.21715 0.10516 -0.28307 0.063178 0.05612 -0.21492 0.12287 0.10865 0.33261 0.1226 -0.15561 0.38615 -0.53717 -0.00061863 
Terrier -0.3429 -0.092244 -0.22623 -0.064059 -0.01729 -0.23614 0.26868 0.18084 -0.27965 0.41589 -0.12584 -0.38924 0.019281 0.067108 0.15088 0.16602 0.12784 0.077021 -0.20105 -0.22108 0.002845 0.30833 -0.024408 0.073552 0.21653 0.18734 -0.09765 0.013115 0.18184 -0.1107 -0.23509 0.057865 0.02991 0.22833 0.0080371 0.35244 0.11583 -0.19322 -0.53118 0.32999 0.22912 -0.42352 -0.098417 0.057445 0.0040058 -0.53355 -0.0094865 -0.038509 0.05149 0.43844 0.31972 -0.026474 -0.23783 -0.019643 0.089198 0.26429 0.0034073 0.12688 0.085879 -0.10627 -0.086614 0.24488 0.19257 0.31884 -0.051321 -0.23629 0.038274 0.19768 -0.36383 -0.069124 -0.05896 0.43663 0.12648 -0.07604 -0.2728 -0.30104 0.091533 0.45183 0.17147 -0.15348 -0.18146 -0.14426 0.23845 -0.19868 0.075768 0.28494 -0.1966 0.1044 -0.25291 0.063148 0.054335 -0.19109 0.11513 0.10406 0.30534 0.11145 -0.13633 0.35572 -0.49343 -0.0082479 
Care. -0.3762 -0.096622 -0.25895 -0.069524 -0.020875 -0.26581 0.32539 0.20855 -0.31312 0.48338 -0.14529 -0.454 0.041379 0.079871 0.17321 0.1938 0.1473 0.08756 -0.23322 -0.2621 -0.002071 0.32636 -0.018299 0.080761 0.22981 0.19463 -0.11871 0.011774 0.21799 -0.13478 -0.2691 0.068295 0.038519 0.25699 0.016316 0.38227 0.13623 -0.21476 -0.59666 0.37615 0.25699 -0.45316 -0.11679 0.044697 -0.007986 -0.59965 -0.014982 -0.033195 0.041592 0.48259 0.36597 -0.027402 -0.28563 -0.032835 0.095018 0.29994 0.00056707 0.14563 0.11569 -0.1327 -0.091071 0.26991 0.20697 0.35795 -0.053383 -0.27965 0.034269 0.2249 -0.39249 -0.083491 -0.079583 0.48608 0.13279 -0.085362 -0.29812 -0.33036 0.083321 0.50447 0.17547 -0.16509 -0.19925 -0.15232 0.27071 -0.23149 0.098744 0.3092 -0.2359 0.12552 -0.28832 0.081908 0.063553 -0.21566 0.12245 0.1026 0.3485 0.12913 -0.14441 0.39757 -0.54311 -0.011259 
Can -0.33992 -0.076706 -0.24726 -0.064818 -0.017351 -0.24665 0.29662 0.17986 -0.29403 0.46311 -0.12762 -0.41835 0.045786 0.067822 0.16362 0.17131 0.14698 0.087554 -0.21801 -0.23384 -0.00071138 0.30256 -0.016706 0.073358 0.20813 0.17787 -0.1115 0.010987 0.19676 -0.12989 -0.25103 0.067129 0.030111 0.23462 0.020354 0.35179 0.12003 -0.2037 -0.5417 0.34422 0.24515 -0.43244 -0.11534 0.030201 -0.017506 -0.54765 -0.01335 -0.019376 0.027909 0.44042 0.3432 -0.026319 -0.26322 -0.040016 0.085252 0.28066 0.00092017 0.12916 0.10763 -0.11534 -0.080147 0.24067 0.18486 0.33582 -0.049848 -0.26456 0.024008 0.21501 -0.36262 -0.073158 -0.068599 0.45214 0.12107 -0.087625 -0.26328 -0.30662 0.080254 0.47853 0.1539 -0.15729 -0.18425 -0.13425 0.25057 -0.21426 0.092138 0.28573 -0.22801 0.10558 -0.26584 0.081881 0.059809 -0.19397 0.10663 0.087984 0.31627 0.13072 -0.13816 0.36671 -0.50035 -0.0033117 
Trail -0.35773 -0.10056 -0.23923 -0.061454 -0.020992 -0.26018 0.30547 0.20373 -0.29156 0.45805 -0.13798 -0.42267 0.027762 0.078297 0.16821 0.18575 0.13811 0.085611 -0.22357 -0.24283 -0.010168 0.32191 -0.030061 0.080159 0.21686 0.19272 -0.10605 0.016911 0.19991 -0.13072 -0.24457 0.066363 0.031051 0.24343 0.01157 0.37023 0.13025 -0.21793 -0.5559 0.35569 0.24219 -0.43262 -0.10897 0.056529 -0.010949 -0.57072 -0.0037236 -0.031631 0.041787 0.47101 0.33504 -0.02577 -0.26229 -0.036232 0.10191 0.28178 0.011648 0.13752 0.11345 -0.1291 -0.088266 0.26165 0.20218 0.34359 -0.057163 -0.25258 0.046381 0.20838 -0.37371 -0.078461 -0.069334 0.46324 0.13184 -0.081225 -0.28415 -0.31482 0.087938 0.49569 0.1702 -0.15441 -0.1852 -0.14842 0.25564 -0.21135 0.085704 0.29471 -0.21047 0.12214 -0.26762 0.088048 0.064715 -0.2055 0.12709 0.10897 0.32984 0.12168 -0.14459 0.38128 -0.52454 -0.0097623 
Cup. -0.41479 -0.10585 -0.28305 -0.081053 -0.01875 -0.29467 0.34552 0.22277 -0.34098 0.53445 -0.15574 -0.49153 0.043358 0.084699 0.19916 0.20754 0.16541 0.10004 -0.25092 -0.28279 0.0066392 0.36988 -0.032277 0.096803 0.25651 0.2206 -0.12132 0.0099259 0.23034 -0.14563 -0.30205 0.076603 0.042152 0.28946 0.020988 0.4278 0.14296 -0.24089 -0.64365 0.41088 0.28176 -0.5175 -0.13762 0.043266 -0.007384 -0.65923 -0.018079 -0.033709 0.046061 0.53594 0.40696 -0.037254 -0.30251 -0.038449 0.11146 0.33122 0.0040392 0.16187 0.11501 -0.1319 -0.10377 0.3011 0.22414 0.4024 -0.062453 -0.30528 0.042856 0.24425 -0.43751 -0.094983 -0.079837 0.53836 0.14518 -0.1057 -0.32313 -0.36592 0.09236 0.56675 0.19355 -0.18809 -0.22287 -0.1621 0.3072 -0.2533 0.10218 0.34542 -0.26089 0.13561 -0.31468 0.090229 0.07339 -0.23668 0.1289 0.11357 0.38482 0.15209 -0.16012 0.43757 -0.60567 -0.013192 
bag. -0.34393 -0.093012 -0.2232 -0.067216 -0.023195 -0.22967 0.28112 0.19597 -0.28657 0.41673 -0.13376 -0.3999 0.024956 0.073158 0.14816 0.18418 0.12633 0.076815 -0.20811 -0.23313 -0.0033629 0.29673 -0.021794 0.068128 0.20963 0.17804 -0.11084 0.0089886 0.18994 -0.12489 -0.23218 0.051836 0.034485 0.23277 0.0010656 0.34017 0.13025 -0.18639 -0.5473 0.33903 0.22322 -0.41092 -0.098207 0.047744 0.0072292 -0.53523 -0.019358 -0.036005 0.044249 0.42052 0.32581 -0.030868 -0.24825 -0.026162 0.081412 0.26075 -0.0042373 0.13831 0.091386 -0.11002 -0.090334 0.24794 0.1881 0.3182 -0.048191 -0.25134 0.025473 0.20034 -0.35724 -0.07089 -0.060359 0.42812 0.1285 -0.07023 -0.27443 -0.30157 0.080723 0.44297 0.16559 -0.1598 -0.18961 -0.14541 0.2343 -0.19633 0.0874 0.28839 -0.19885 0.10888 -0.25927 0.068355 0.046618 -0.18807 0.11191 0.098846 0.31803 0.10325 -0.12458 0.35236 -0.48931 -0.0037269 
Grill -0.42791 -0.10753 -0.28475 -0.074134 -0.016874 -0.29969 0.33877 0.22407 -0.35187 0.53015 -0.15367 -0.48782 0.019312 0.085836 0.18629 0.21605 0.16344 0.10504 -0.2503 -0.27214 -0.001868 0.38803 -0.031975 0.095758 0.25938 0.22848 -0.1196 0.008883 0.22628 -0.13203 -0.29613 0.079966 0.036285 0.27938 0.0044996 0.4328 0.14138 -0.25118 -0.65165 0.41894 0.28517 -0.53934 -0.13072 0.06842 -0.0070121 -0.66565 -0.0087698 -0.036692 0.058554 0.54864 0.40987 -0.029846 -0.29877 -0.031946 0.11546 0.32957 0.010204 0.16303 0.12169 -0.14156 -0.10162 0.30123 0.239 0.39511 -0.073048 -0.29801 0.06347 0.24683 -0.43982 -0.086945 -0.069428 0.55503 0.1575 -0.10733 -0.33645 -0.37159 0.12293 0.5802 0.20841 -0.18405 -0.21759 -0.18546 0.30453 -0.25224 0.096923 0.3637 -0.24122 0.12777 -0.31612 0.084216 0.075687 -0.23869 0.14392 0.11985 0.37553 0.14587 -0.16612 0.43833 -0.62438 -0.0051155 
Sensitive -0.37625 -0.098941 -0.2632 -0.073101 -0.023003 -0.27144 0.31737 0.21473 -0.31531 0.48919 -0.14186 -0.45595 0.034523 0.078807 0.1751 0.19849 0.15145 0.09377 -0.23626 -0.26045 -0.0016404 0.33882 -0.027942 0.087661 0.23081 0.20331 -0.11895 0.0095116 0.21547 -0.13649 -0.2766 0.073213 0.039521 0.25968 0.0097623 0.38826 0.13303 -0.21709 -0.59881 0.3859 0.26219 -0.46882 -0.12168 0.046945 -0.0047404 -0.60241 -0.020464 -0.030134 0.042201 0.49046 0.36914 -0.026774 -0.28881 -0.036837 0.10039 0.30311 -0.0025446 0.15018 0.11312 -0.12737 -0.093193 0.27472 0.20696 0.36356 -0.053717 -0.28155 0.043122 0.22846 -0.39787 -0.083054 -0.075974 0.49463 0.14133 -0.089706 -0.29493 -0.3309 0.087067 0.52075 0.17899 -0.17246 -0.20189 -0.15777 0.27728 -0.22996 0.1017 0.31637 -0.23924 0.1292 -0.28793 0.085596 0.066565 -0.21649 0.12085 0.11022 0.35407 0.13248 -0.14728 0.40686 -0.55801 -0.0059468 
Delights -0.39752 -0.097152 -0.27369 -0.067366 -0.011891 -0.27794 0.32161 0.20135 -0.32836 0.51055 -0.14496 -0.45735 0.038873 0.07986 0.1817 0.19283 0.15337 0.10164 -0.2376 -0.25524 -0.0013972 0.35193 -0.024599 0.09128 0.24497 0.20641 -0.11278 0.012526 0.21832 -0.13159 -0.27889 0.073314 0.032271 0.26028 0.017724 0.4002 0.1341 -0.23667 -0.59921 0.38907 0.27475 -0.50319 -0.13262 0.050332 -0.0083539 -0.62196 -0.0064257 -0.02695 0.048416 0.50604 0.38554 -0.027467 -0.28133 -0.036998 0.11057 0.31206 0.0075626 0.15278 0.11988 -0.12652 -0.093604 0.27401 0.21475 0.37416 -0.064844 -0.29267 0.048703 0.2338 -0.41824 -0.086141 -0.073217 0.51087 0.13263 -0.10304 -0.31182 -0.34659 0.10014 0.53558 0.18906 -0.16898 -0.20763 -0.16488 0.28989 -0.2392 0.092665 0.33347 -0.24394 0.11737 -0.29542 0.08297 0.070137 -0.22578 0.12646 0.1061 0.35091 0.14744 -0.15669 0.40923 -0.57396 -0.0043995 
